{"learner":{"attributes":{"best_iteration":"99","best_ntree_limit":"100","scikit_learn":"{\"n_estimators\": 100, \"objective\": \"reg:squarederror\", \"max_depth\": null, \"max_leaves\": null, \"max_bin\": null, \"grow_policy\": null, \"learning_rate\": null, \"verbosity\": null, \"booster\": null, \"tree_method\": null, \"gamma\": null, \"min_child_weight\": null, \"max_delta_step\": null, \"subsample\": null, \"sampling_method\": null, \"colsample_bytree\": null, \"colsample_bylevel\": null, \"colsample_bynode\": null, \"reg_alpha\": null, \"reg_lambda\": null, \"scale_pos_weight\": null, \"base_score\": null, \"missing\": NaN, \"num_parallel_tree\": null, \"random_state\": 42, \"n_jobs\": -1, \"monotone_constraints\": null, \"interaction_constraints\": null, \"importance_type\": null, \"gpu_id\": null, \"validate_parameters\": null, \"predictor\": null, \"enable_categorical\": false, \"feature_types\": null, \"max_cat_to_onehot\": null, \"max_cat_threshold\": null, \"eval_metric\": null, \"early_stopping_rounds\": null, \"callbacks\": null, \"_estimator_type\": \"regressor\"}"},"feature_names":[],"feature_types":[],"gradient_booster":{"model":{"gbtree_model_param":{"num_parallel_tree":"1","num_trees":"100","size_leaf_vector":"0"},"tree_info":[0,0,0,0,0,0,0,0,0,0,0,0,0,0,0,0,0,0,0,0,0,0,0,0,0,0,0,0,0,0,0,0,0,0,0,0,0,0,0,0,0,0,0,0,0,0,0,0,0,0,0,0,0,0,0,0,0,0,0,0,0,0,0,0,0,0,0,0,0,0,0,0,0,0,0,0,0,0,0,0,0,0,0,0,0,0,0,0,0,0,0,0,0,0,0,0,0,0,0,0],"trees":[{"base_weights":[3.3618891E0,5.923489E0,2.41571E0,8.780052E0,4.8862014E0,1.9661654E0,4.5135555E0,6.5030293E0,1.0817957E1,3.9901009E0,7.816395E0,1.6333404E0,2.5888534E0,3.8941004E0,7.4079785E0,3.788447E0,7.104282E0,9.972008E0,1.2653748E1,4.5369954E0,2.4108186E0,8.882459E0,4.9013453E0,1.4390997E0,2.1560607E0,2.3040578E0,3.3438148E0,4.4333143E0,2.7896636E0,6.319425E0,8.439297E0,3.2175214E0,4.620654E0,5.840763E0,7.5223E0,8.055695E0,1.0667177E1,1.0780106E1,1.3491698E1,3.8307893E0,5.7477846E0,2.0723248E0,3.0571265E0,7.250529E0,1.0289202E1,4.3779387E0,7.9849243E0,1.2619234E0,1.7476106E0,4.4852405E0,2.1174154E0,2.1029272E0,2.654148E0,2.979853E0,3.6886256E0,3.3292246E0,4.7255797E0,3.5624888E0,2.3783052E0,5.618224E0,7.083435E0,8.578472E0,2.53301E0,3.76448E0,2.8291895E0,3.9496922E0,5.2549953E0,5.634347E0,7.5192437E0,6.7920027E0,8.268319E0,7.339347E0,8.907388E0,1.1203835E1,9.027527E0,1.0019758E1,1.2198179E1,1.3028453E1,1.4669743E1,3.3239834E0,4.3917246E0,6.583051E0,5.112089E0,1.7139509E0,2.4454951E0,2.4808042E0,3.4652748E0,6.696474E0,9.286841E0,9.015269E0,1.2200771E1,3.7987792E0,5.05854E0,1.0628499E1,6.778792E0,2.5533178E0,1.2200873E0,1.594332E0,2.017086E0,4.9758863E0,1.2187933E0,1.783232E0,2.387833E0,1.5709003E0,2.2773795E0,2.2815113E0,2.9631839E0,5.3255696E0,2.8542125E0,3.5620527E0,4.4704647E0,2.1078339E0,3.5084214E0,4.259409E0,5.2711554E0,6.847628E0,3.47726E0,1.9356772E0,2.8651037E0,5.864392E0,4.189029E0,3.6624234E0,7.169142E0,8.000031E0,9.928775E0,2.29529E0,8.9075E0],"categories":[],"categories_nodes":[],"categories_segments":[],"categories_sizes":[],"default_left":[1,1,1,1,1,1,1,1,1,1,1,1,1,1,1,1,1,1,1,1,1,1,1,1,1,1,1,1,1,1,1,1,1,1,1,1,1,1,1,1,1,1,1,1,1,1,1,1,1,1,1,1,1,1,1,1,1,1,1,1,1,1,1,0,0,0,0,0,0,0,0,0,0,0,0,0,0,0,0,0,0,0,0,0,0,0,0,0,0,0,0,0,0,0,0,0,0,0,0,0,0,0,0,0,0,0,0,0,0,0,0,0,0,0,0,0,0,0,0,0,0,0,0,0,0,0,0],"id":0,"left_children":[1,3,5,7,9,11,13,15,17,19,21,23,25,27,29,31,33,35,37,39,41,43,45,47,49,51,53,55,57,59,61,63,65,67,69,71,73,75,77,79,81,83,85,87,89,91,93,95,97,99,101,103,105,107,109,111,113,115,117,119,121,123,125,-1,-1,-1,-1,-1,-1,-1,-1,-1,-1,-1,-1,-1,-1,-1,-1,-1,-1,-1,-1,-1,-1,-1,-1,-1,-1,-1,-1,-1,-1,-1,-1,-1,-1,-1,-1,-1,-1,-1,-1,-1,-1,-1,-1,-1,-1,-1,-1,-1,-1,-1,-1,-1,-1,-1,-1,-1,-1,-1,-1,-1,-1,-1,-1],"loss_changes":[9.111904E6,3.004712E6,2.589102E6,1.253462E6,1.953342E6,4.68561E5,8.68637E5,2.082125E5,2.21255E5,4.92046E5,5.41381E5,1.495955E5,1.693165E5,2.3765E5,9.58295E4,1.09781875E4,5.5124E4,1.2992E5,7.04485E4,3.61813E5,3.2052875E4,2.92785E5,7.526625E4,5.87155E4,3.5920625E4,4.025825E4,2.70595E4,8.65145E4,4.1613312E4,2.2222375E4,3.60265E4,2.9047656E3,3.9851719E3,8.955375E3,4.27015E4,1.5786375E4,6.2908E4,1.4865125E4,1.6762E4,7.59685E4,8.27395E4,1.2857844E4,1.1839E4,6.6572E4,1.667245E5,1.57036875E4,2.1510938E4,3.6862375E4,1.618275E4,1.0433734E4,3.548E4,3.3704125E4,2.402E4,3.091325E4,1.0945125E4,1.227775E4,5.3903E4,1.27095E4,1.8405781E4,7.6004375E3,5.8035625E3,3.33845E4,1.5115669E3,0E0,0E0,0E0,0E0,0E0,0E0,0E0,0E0,0E0,0E0,0E0,0E0,0E0,0E0,0E0,0E0,0E0,0E0,0E0,0E0,0E0,0E0,0E0,0E0,0E0,0E0,0E0,0E0,0E0,0E0,0E0,0E0,0E0,0E0,0E0,0E0,0E0,0E0,0E0,0E0,0E0,0E0,0E0,0E0,0E0,0E0,0E0,0E0,0E0,0E0,0E0,0E0,0E0,0E0,0E0,0E0,0E0,0E0,0E0,0E0,0E0,0E0,0E0,0E0],"parents":[2147483647,0,0,1,1,2,2,3,3,4,4,5,5,6,6,7,7,8,8,9,9,10,10,11,11,12,12,13,13,14,14,15,15,16,16,17,17,18,18,19,19,20,20,21,21,22,22,23,23,24,24,25,25,26,26,27,27,28,28,29,29,30,30,31,31,32,32,33,33,34,34,35,35,36,36,37,37,38,38,39,39,40,40,41,41,42,42,43,43,44,44,45,45,46,46,47,47,48,48,49,49,50,50,51,51,52,52,53,53,54,54,55,55,56,56,57,57,58,58,59,59,60,60,61,61,62,62],"right_children":[2,4,6,8,10,12,14,16,18,20,22,24,26,28,30,32,34,36,38,40,42,44,46,48,50,52,54,56,58,60,62,64,66,68,70,72,74,76,78,80,82,84,86,88,90,92,94,96,98,100,102,104,106,108,110,112,114,116,118,120,122,124,126,-1,-1,-1,-1,-1,-1,-1,-1,-1,-1,-1,-1,-1,-1,-1,-1,-1,-1,-1,-1,-1,-1,-1,-1,-1,-1,-1,-1,-1,-1,-1,-1,-1,-1,-1,-1,-1,-1,-1,-1,-1,-1,-1,-1,-1,-1,-1,-1,-1,-1,-1,-1,-1,-1,-1,-1,-1,-1,-1,-1,-1,-1,-1,-1],"split_conditions":[3.7964863E1,4.2E1,6.7005005E1,4.605E1,6.505E1,4.9025E1,9.8024994E1,2.731E1,6.9985E1,2.7375E3,2.7375E3,1.05E1,1.05E1,3.5E0,1.13025E2,2.5E0,5.563414E1,5.5634567E1,5.5634163E1,4.7004997E1,4.9309998E1,5.983364E1,1.0091E2,4.1395E1,4.3768898E1,2.0195E3,5.4988647E1,5.5E0,3.999E3,1.05E1,3.735E2,3.5E0,2.0195E3,2.0205E3,2.0195E3,2.0195E3,3.7711845E1,3.7510414E1,8.468E1,9.535E0,3.0427341E1,9.075E0,9.48E0,8.917E1,8.458E1,1.2985001E1,2.05486E1,4.3711758E1,2.0195E3,4.0145245E1,3.8455E1,5E-1,5.5E0,4.391678E1,2.0205E3,2.5E0,7.9115E1,4.3728905E1,5E-1,3.5E0,4.329603E1,1.4213501E2,4.5E0,1.1293441E0,8.487569E-1,1.1849077E0,1.5764986E0,1.6903042E0,2.2557733E0,2.037601E0,2.480496E0,2.2018042E0,2.6722164E0,3.3611505E0,2.7082582E0,3.0059276E0,3.6594539E0,3.908536E0,4.400923E0,9.9719507E-1,1.3175174E0,1.9749154E0,1.5336268E0,5.141853E-1,7.3364854E-1,7.442413E-1,1.0395825E0,2.0089424E0,2.7860525E0,2.7045808E0,3.6602316E0,1.1396338E0,1.517562E0,3.1885498E0,2.0336378E0,7.659954E-1,3.660262E-1,4.7829962E-1,6.0512584E-1,1.4927659E0,3.65638E-1,5.349696E-1,7.1634996E-1,4.712701E-1,6.832139E-1,6.844534E-1,8.889552E-1,1.5976709E0,8.562638E-1,1.0686159E0,1.3411394E0,6.323502E-1,1.0525265E0,1.2778227E0,1.5813466E0,2.0542886E0,1.0431781E0,5.807032E-1,8.5953116E-1,1.7593176E0,1.2567089E0,1.0987271E0,2.1507425E0,2.4000096E0,2.9786325E0,6.88587E-1,2.6722503E0],"split_indices":[1,2,7,7,7,7,7,7,7,2,2,5,5,3,7,4,0,0,0,7,7,0,7,7,0,10,0,5,2,5,7,3,10,10,10,10,1,1,7,8,1,8,8,7,7,8,1,0,10,1,7,9,5,0,10,5,7,0,9,3,0,7,6,0,0,0,0,0,0,0,0,0,0,0,0,0,0,0,0,0,0,0,0,0,0,0,0,0,0,0,0,0,0,0,0,0,0,0,0,0,0,0,0,0,0,0,0,0,0,0,0,0,0,0,0,0,0,0,0,0,0,0,0,0,0,0,0],"split_type":[0,0,0,0,0,0,0,0,0,0,0,0,0,0,0,0,0,0,0,0,0,0,0,0,0,0,0,0,0,0,0,0,0,0,0,0,0,0,0,0,0,0,0,0,0,0,0,0,0,0,0,0,0,0,0,0,0,0,0,0,0,0,0,0,0,0,0,0,0,0,0,0,0,0,0,0,0,0,0,0,0,0,0,0,0,0,0,0,0,0,0,0,0,0,0,0,0,0,0,0,0,0,0,0,0,0,0,0,0,0,0,0,0,0,0,0,0,0,0,0,0,0,0,0,0,0,0],"sum_hessian":[3.759458E6,1.014065E6,2.745393E6,2.70136E5,7.43929E5,2.260908E6,4.84485E5,1.27585E5,1.42551E5,5.69706E5,1.74223E5,1.473389E6,7.87519E5,3.99078E5,8.5407E4,2.3136E4,1.04449E5,9.7588E4,4.4963E4,4.23165E5,1.46541E5,1.27568E5,4.6655E4,1.074218E6,3.99171E5,5.71816E5,2.15703E5,2.68155E5,1.30923E5,4.1554E4,4.3853E4,1.3725E4,9.411E3,2.5969E4,7.848E4,2.5981E4,7.1607E4,1.3899E4,3.1064E4,2.67277E5,1.55888E5,9.6175E4,5.0366E4,5.906E4,6.8508E4,3.9887E4,6.768E3,6.82352E5,3.91866E5,6.513E3,3.92658E5,3.63175E5,2.08641E5,1.04942E5,1.10761E5,5.6129E4,2.12026E5,4.5477E4,8.5446E4,2.1672E4,1.9882E4,4.2843E4,1.01E3,5.695E3,8.03E3,4.577E3,4.834E3,2.3129E4,2.84E3,3.9663E4,3.8817E4,1.4117E4,1.1864E4,5.3945E4,1.7662E4,9.053E3,4.846E3,2.2305E4,8.759E3,1.40417E5,1.2686E5,6.7365E4,8.8523E4,4.9063E4,4.7112E4,2.0884E4,2.9482E4,4.6431E4,1.2629E4,4.1114E4,2.7394E4,2.1553E4,1.8334E4,2.118E3,4.65E3,2.141E4,6.60942E5,2.49791E5,1.42075E5,5.662E3,8.51E2,1.75626E5,2.17032E5,8.9682E4,2.73493E5,9.4591E4,1.1405E5,5.333E3,9.9609E4,9.5333E4,1.5428E4,7.183E3,4.8946E4,1.14338E5,9.7688E4,1.148E3,4.4329E4,4.4756E4,4.069E4,1.8485E4,3.187E3,4.87E2,1.9395E4,2.9999E4,1.2844E4,9.75E2,3.5E1],"tree_param":{"num_deleted":"0","num_feature":"13","num_nodes":"127","size_leaf_vector":"0"}},{"base_weights":[2.35335E0,4.1024756E0,1.6688997E0,6.146162E0,3.4011648E0,1.5045913E0,4.578838E0,4.435245E0,7.4996085E0,2.9008265E0,6.0191793E0,1.2332344E0,2.2896135E0,3.9653826E0,5.8255405E0,2.9197817E0,4.9552884E0,6.5833426E0,8.501013E0,3.2807746E0,1.8047094E0,4.8868923E0,7.428967E0,8.076539E-1,1.369639E0,1.9594753E0,2.9430234E0,3.4782686E0,4.472726E0,5.249435E0,7.1323214E0,2.425885E0,3.7261534E0,4.744779E0,6.452241E0,5.2643833E0,7.0194526E0,7.03019E0,9.007981E0,2.716258E0,4.256027E0,1.4712857E0,2.248686E0,3.5729856E0,5.368162E0,6.7853875E0,9.514352E0,1.8311183E0,7.733821E-1,1.5564368E0,1.0990925E0,2.2625425E0,1.6671441E0,2.7107067E0,3.473961E0,2.961789E0,3.9043534E0,3.8154855E0,4.8069663E0,4.2829423E0,5.8402505E0,6.571906E0,8.196057E0,7.428601E0,2.3771386E0,3.5032268E0,4.9974537E0,4.3543477E0,5.3626266E0,5.3194265E0,7.0203276E0,5.0447183E0,7.1731224E0,6.2902436E0,7.8173885E0,6.261916E0,7.954432E0,8.466903E0,9.723386E0,2.5449326E0,3.9999073E0,4.0229316E0,6.0937157E0,1.3560445E0,2.2600904E0,1.8455033E0,2.6214867E0,6.4009233E0,3.2833438E0,5.0262437E0,7.429535E0,7.1993504E0,4.5790243E0,9.755143E0,4.9661283E0,2.2763135E0,1.5028098E-1,5.7700276E-1,8.852407E-1,1.1872263E0,1.7849003E0,7.0752907E-1,1.2994794E0,1.889539E0,2.60821E0,1.1722168E0,1.8518902E0,2.3794563E0,2.9633553E0,3.3387067E0,4.450695E0,3.7989292E0,2.4761398E0,4.2206454E0,2.9225175E0,3.080752E0,4.2257504E0,7.472058E0,4.6913333E0,5.725666E0,3.2533607E0,6.107229E0,2.8840435E0,7.9428964E0,6.336914E0,8.358537E0,3.1070035E0],"categories":[],"categories_nodes":[],"categories_segments":[],"categories_sizes":[],"default_left":[1,1,1,1,1,1,1,1,1,1,1,1,1,1,1,1,1,1,1,1,1,1,1,1,1,1,1,1,1,1,1,1,1,1,1,1,1,1,1,1,1,1,1,1,1,1,1,1,1,1,1,1,1,1,1,1,1,1,1,1,1,1,1,0,0,0,0,0,0,0,0,0,0,0,0,0,0,0,0,0,0,0,0,0,0,0,0,0,0,0,0,0,0,0,0,0,0,0,0,0,0,0,0,0,0,0,0,0,0,0,0,0,0,0,0,0,0,0,0,0,0,0,0,0,0,0,0],"id":1,"left_children":[1,3,5,7,9,11,13,15,17,19,21,23,25,27,29,31,33,35,37,39,41,43,45,47,49,51,53,55,57,59,61,63,65,67,69,71,73,75,77,79,81,83,85,87,89,91,93,95,97,99,101,103,105,107,109,111,113,115,117,119,121,123,125,-1,-1,-1,-1,-1,-1,-1,-1,-1,-1,-1,-1,-1,-1,-1,-1,-1,-1,-1,-1,-1,-1,-1,-1,-1,-1,-1,-1,-1,-1,-1,-1,-1,-1,-1,-1,-1,-1,-1,-1,-1,-1,-1,-1,-1,-1,-1,-1,-1,-1,-1,-1,-1,-1,-1,-1,-1,-1,-1,-1,-1,-1,-1,-1],"loss_changes":[4.500776E6,1.515448E6,1.291942E6,6.25514E5,1.031155E6,5.448385E5,1.1042725E5,9.40195E4,1.38334E5,2.75242E5,2.01587E5,1.1033575E5,1.4172E5,2.3905625E4,3.5816625E4,1.2132422E4,2.7962E4,4.52695E4,5.36695E4,2.701905E5,2.5180688E4,4.427725E4,7.544E4,1.6180344E4,7.273925E4,3.866625E4,2.719175E4,1.08565E4,1.039625E4,1.8851125E4,8.63125E3,4.5935625E3,3.2637812E3,1.876425E4,7.0086875E3,8.1716875E3,3.439125E4,1.30694375E4,2.06605E4,6.8354E4,7.705075E4,8.829203E3,1.0962156E4,1.53639375E4,3.6098125E4,3.923575E4,1.4479E4,1.1184504E4,9.805156E3,7.18195E4,4.6127438E4,2.7625875E4,2.0312812E4,1.283175E4,8.8521875E3,9.068594E3,8.3904375E3,4.8060156E3,9.6486875E3,1.861575E4,1.6172125E4,3.0254375E3,4.127375E3,0E0,0E0,0E0,0E0,0E0,0E0,0E0,0E0,0E0,0E0,0E0,0E0,0E0,0E0,0E0,0E0,0E0,0E0,0E0,0E0,0E0,0E0,0E0,0E0,0E0,0E0,0E0,0E0,0E0,0E0,0E0,0E0,0E0,0E0,0E0,0E0,0E0,0E0,0E0,0E0,0E0,0E0,0E0,0E0,0E0,0E0,0E0,0E0,0E0,0E0,0E0,0E0,0E0,0E0,0E0,0E0,0E0,0E0,0E0,0E0,0E0,0E0,0E0,0E0],"parents":[2147483647,0,0,1,1,2,2,3,3,4,4,5,5,6,6,7,7,8,8,9,9,10,10,11,11,12,12,13,13,14,14,15,15,16,16,17,17,18,18,19,19,20,20,21,21,22,22,23,23,24,24,25,25,26,26,27,27,28,28,29,29,30,30,31,31,32,32,33,33,34,34,35,35,36,36,37,37,38,38,39,39,40,40,41,41,42,42,43,43,44,44,45,45,46,46,47,47,48,48,49,49,50,50,51,51,52,52,53,53,54,54,55,55,56,56,57,57,58,58,59,59,60,60,61,61,62,62],"right_children":[2,4,6,8,10,12,14,16,18,20,22,24,26,28,30,32,34,36,38,40,42,44,46,48,50,52,54,56,58,60,62,64,66,68,70,72,74,76,78,80,82,84,86,88,90,92,94,96,98,100,102,104,106,108,110,112,114,116,118,120,122,124,126,-1,-1,-1,-1,-1,-1,-1,-1,-1,-1,-1,-1,-1,-1,-1,-1,-1,-1,-1,-1,-1,-1,-1,-1,-1,-1,-1,-1,-1,-1,-1,-1,-1,-1,-1,-1,-1,-1,-1,-1,-1,-1,-1,-1,-1,-1,-1,-1,-1,-1,-1,-1,-1,-1,-1,-1,-1,-1,-1,-1,-1,-1,-1,-1],"split_conditions":[3.8081635E1,4.2E1,8.746E1,4.4995003E1,7.2005005E1,5.9285E1,1.10005005E2,3.1939999E1,6.143E1,2.7375E3,5.9819134E1,3.4015E1,1.05E1,1.05E1,1.45E1,2.3875E1,2.0205E3,5.5626602E1,5.5625465E1,5.057E1,4.8215E1,5.469056E1,9.805E1,4.3694416E1,3.5E0,3.5E0,7.4645004E1,5.497454E1,5E-1,5.4702923E1,1.3455E2,9.965E0,2.0205E3,3.9510002E1,5.5663666E1,2.0205E3,2.0195E3,3.748691E1,2.0195E3,2.0205E3,2.0205E3,2.0205E3,1.0360001E1,4.460457E1,1.0255E2,3.0438488E1,3.0535E3,4.0956978E1,5.005E0,6.5E0,5E-1,5.5E0,5E-1,5E-1,2.0205E3,4.0259613E1,3.5E0,5.4670815E1,4.39171E1,4.000966E1,3.5E0,3.897181E1,3.2825E2,2.2285802E0,7.131416E-1,1.050968E0,1.4992361E0,1.3063043E0,1.608788E0,1.595828E0,2.1060984E0,1.5134156E0,2.1519368E0,1.8870732E0,2.3452168E0,1.878575E0,2.3863297E0,2.540071E0,2.9170158E0,7.634798E-1,1.1999723E0,1.2068795E0,1.8281147E0,4.0681338E-1,6.7802715E-1,5.5365103E-1,7.8644603E-1,1.920277E0,9.850032E-1,1.5078732E0,2.2288606E0,2.1598053E0,1.3737073E0,2.926543E0,1.4898386E0,6.828941E-1,4.5084298E-2,1.7310083E-1,2.6557222E-1,3.561679E-1,5.354701E-1,2.1225873E-1,3.8984382E-1,5.6686175E-1,7.824631E-1,3.5166505E-1,5.555671E-1,7.138369E-1,8.890066E-1,1.0016121E0,1.3352085E0,1.1396788E0,7.4284196E-1,1.2661936E0,8.767553E-1,9.242256E-1,1.2677252E0,2.2416174E0,1.4074E0,1.7176999E0,9.7600824E-1,1.8321688E0,8.652131E-1,2.382869E0,1.9010743E0,2.5075612E0,9.321011E-1],"split_indices":[1,2,7,7,7,7,7,7,7,2,0,7,5,5,5,7,10,0,0,7,7,0,7,0,3,3,7,0,9,0,7,7,10,7,0,10,10,1,10,10,10,10,8,0,7,1,2,1,8,5,9,5,9,9,10,1,3,0,0,1,3,1,7,0,0,0,0,0,0,0,0,0,0,0,0,0,0,0,0,0,0,0,0,0,0,0,0,0,0,0,0,0,0,0,0,0,0,0,0,0,0,0,0,0,0,0,0,0,0,0,0,0,0,0,0,0,0,0,0,0,0,0,0,0,0,0,0],"split_type":[0,0,0,0,0,0,0,0,0,0,0,0,0,0,0,0,0,0,0,0,0,0,0,0,0,0,0,0,0,0,0,0,0,0,0,0,0,0,0,0,0,0,0,0,0,0,0,0,0,0,0,0,0,0,0,0,0,0,0,0,0,0,0,0,0,0,0,0,0,0,0,0,0,0,0,0,0,0,0,0,0,0,0,0,0,0,0,0,0,0,0,0,0,0,0,0,0,0,0,0,0,0,0,0,0,0,0,0,0,0,0,0,0,0,0,0,0,0,0,0,0,0,0,0,0,0,0],"sum_hessian":[3.759458E6,1.057357E6,2.702101E6,2.70139E5,7.87218E5,2.557684E6,1.44417E5,1.19315E5,1.50824E5,6.60911E5,1.26307E5,1.900682E6,6.57002E5,9.6793E4,4.7624E4,3.0485E4,8.883E4,7.8764E4,7.206E4,4.90787E5,1.70124E5,7.005E4,5.6257E4,4.61334E5,1.439348E6,4.36475E5,2.20527E5,4.9385E4,4.7408E4,3.3056E4,1.4568E4,1.8908E4,1.1577E4,7.7882E4,1.0948E4,1.9575E4,5.9189E4,1.8475E4,5.3585E4,3.10855E5,1.79932E5,9.7161E4,7.2963E4,1.8782E4,5.1268E4,4.2993E4,1.3264E4,1.4946E4,4.46388E5,8.51458E5,5.8789E5,2.14299E5,2.22176E5,1.53408E5,6.7119E4,2.2328E4,2.7057E4,1.5986E4,3.1422E4,1.2544E4,2.0512E4,9.546E3,5.022E3,1.81E2,1.8727E4,9.853E3,1.724E3,4.7729E4,3.0153E4,3.66E3,7.288E3,1.7558E4,2.017E3,3.0931E4,2.8258E4,1.0093E4,8.382E3,3.0517E4,2.3068E4,2.74254E5,3.6601E4,1.59681E5,2.0251E4,8.4778E4,1.2383E4,3.5056E4,3.7907E4,1.743E3,1.7039E4,4.3977E4,7.291E3,3.6199E4,6.794E3,1.2596E4,6.68E2,1.1816E4,3.13E3,1.61995E5,2.84393E5,3.25476E5,5.25982E5,1.99014E5,3.88876E5,1.03077E5,1.11222E5,6.0393E4,1.61783E5,6.6383E4,8.7025E4,5.8959E4,8.16E3,8.195E3,1.4133E4,2.0462E4,6.595E3,5.731E3,1.0255E4,1.304E3,3.0118E4,5.222E3,7.322E3,1.8812E4,1.7E3,1.392E3,8.154E3,4.866E3,1.56E2],"tree_param":{"num_deleted":"0","num_feature":"13","num_nodes":"127","size_leaf_vector":"0"}},{"base_weights":[1.6473672E0,2.8689153E0,1.1662524E0,2.1838093E0,3.9330423E0,9.109258E-1,2.1261723E0,3.4414372E0,1.7508447E0,5.6641583E0,3.3513644E0,6.729747E-1,1.1227746E0,1.805739E0,3.4478521E0,2.4369628E0,3.9831953E0,1.0234901E0,1.9843941E0,4.870615E0,6.165602E0,2.7728348E0,4.48585E0,6.115528E-1,1.2644668E0,9.891675E-1,1.5232124E0,2.064914E0,1.3307508E0,3.0788422E0,4.4186106E0,1.4935151E0,2.7225726E0,3.2421868E0,4.392681E0,1.6697907E0,7.6100343E-1,1.1304895E0,2.1727984E0,4.42001E0,5.9526644E0,6.3630753E0,3.2529E0,3.2066941E0,1.6968944E0,5.5094695E0,3.4522862E0,3.596868E-1,6.8827695E-1,3.2079346E0,1.1983075E0,9.358202E-1,1.5886794E0,1.4297727E0,2.216129E0,1.7209874E0,2.3321478E0,1.1340613E0,1.719899E0,2.8704793E0,4.1070304E0,3.2864726E0,4.949835E0,1.4556047E0,5.9249287E0,2.0734572E0,3.001923E0,2.775706E0,3.7738295E0,4.7554507E0,3.1487231E0,7.396644E-1,1.9985543E0,2.7852198E-1,1.0107689E0,2.4518473E0,1.0475087E0,1.6692469E0,2.6144576E0,3.856283E0,5.08316E0,5.763694E0,8.0686865E0,6.8150945E0,4.888589E0,1.2551575E0,3.8736157E0,2.9148471E0,4.3056974E0,1.5524263E0,2.64176E0,4.982508E0,6.832653E0,2.876139E0,4.2456503E0,5.4072046E-1,2.3587883E-1,5.5008656E-1,8.102197E-1,3.7059166E0,3.0474123E-1,8.23091E-1,1.3668648E0,1.604868E-1,9.7016484E-1,3.430626E0,1.5255636E0,1.2146751E0,1.653002E0,5.6999803E0,2.1295297E0,2.0718668E0,1.0894619E0,1.9802791E0,2.6836536E0,9.8116773E-1,1.4382359E0,1.1111146E0,1.8453529E0,1.1085114E0,2.9718416E0,8.739159E0,4.0018024E0,-9.61934E-2,3.6363747E0,5.076627E0,2.1768806E0],"categories":[],"categories_nodes":[],"categories_segments":[],"categories_sizes":[],"default_left":[1,1,1,1,1,1,1,1,1,1,1,1,1,1,1,1,1,1,1,1,1,1,1,1,1,1,1,1,1,1,1,1,1,1,1,1,1,1,1,1,1,1,1,1,1,1,1,1,1,1,1,1,1,1,1,1,1,1,1,1,1,1,1,0,0,0,0,0,0,0,0,0,0,0,0,0,0,0,0,0,0,0,0,0,0,0,0,0,0,0,0,0,0,0,0,0,0,0,0,0,0,0,0,0,0,0,0,0,0,0,0,0,0,0,0,0,0,0,0,0,0,0,0,0,0,0,0],"id":2,"left_children":[1,3,5,7,9,11,13,15,17,19,21,23,25,27,29,31,33,35,37,39,41,43,45,47,49,51,53,55,57,59,61,63,65,67,69,71,73,75,77,79,81,83,85,87,89,91,93,95,97,99,101,103,105,107,109,111,113,115,117,119,121,123,125,-1,-1,-1,-1,-1,-1,-1,-1,-1,-1,-1,-1,-1,-1,-1,-1,-1,-1,-1,-1,-1,-1,-1,-1,-1,-1,-1,-1,-1,-1,-1,-1,-1,-1,-1,-1,-1,-1,-1,-1,-1,-1,-1,-1,-1,-1,-1,-1,-1,-1,-1,-1,-1,-1,-1,-1,-1,-1,-1,-1,-1,-1,-1,-1],"loss_changes":[2.20945E6,7.74446E5,6.610545E5,3.5187625E5,4.189315E5,1.0739625E5,2.3998875E5,9.0053375E4,8.166225E4,4.160775E4,2.0438275E5,3.6454312E4,6.029775E4,5.6145875E4,3.9597625E4,1.5621844E4,3.260875E4,1.982111E4,5.854025E4,1.9731812E4,3.6858E4,9.6272375E4,1.1125175E5,1.7566094E4,1.2133328E4,2.7026562E4,1.8252938E4,2.7117125E4,1.23225E4,1.7153875E4,1.8299375E4,2.2556445E3,8.0653438E3,9.480531E3,3.123275E4,1.0318391E4,1.0013746E4,7.2098047E3,6.6295875E4,1.0676875E4,4.7162812E3,3.99865E4,5.0457812E3,4.7129625E4,8.086422E3,3.680875E4,2.3909812E4,4.7572734E3,1.17411875E4,4.4907793E3,5.7725E3,2.066475E4,8.022703E3,1.19281875E4,1.00956875E4,2.8590062E4,2.0533125E4,4.9729062E3,4.1266094E3,1.1896125E4,6.544828E3,1.1515609E4,7.2759688E3,0E0,0E0,0E0,0E0,0E0,0E0,0E0,0E0,0E0,0E0,0E0,0E0,0E0,0E0,0E0,0E0,0E0,0E0,0E0,0E0,0E0,0E0,0E0,0E0,0E0,0E0,0E0,0E0,0E0,0E0,0E0,0E0,0E0,0E0,0E0,0E0,0E0,0E0,0E0,0E0,0E0,0E0,0E0,0E0,0E0,0E0,0E0,0E0,0E0,0E0,0E0,0E0,0E0,0E0,0E0,0E0,0E0,0E0,0E0,0E0,0E0,0E0,0E0,0E0],"parents":[2147483647,0,0,1,1,2,2,3,3,4,4,5,5,6,6,7,7,8,8,9,9,10,10,11,11,12,12,13,13,14,14,15,15,16,16,17,17,18,18,19,19,20,20,21,21,22,22,23,23,24,24,25,25,26,26,27,27,28,28,29,29,30,30,31,31,32,32,33,33,34,34,35,35,36,36,37,37,38,38,39,39,40,40,41,41,42,42,43,43,44,44,45,45,46,46,47,47,48,48,49,49,50,50,51,51,52,52,53,53,54,54,55,55,56,56,57,57,58,58,59,59,60,60,61,61,62,62],"right_children":[2,4,6,8,10,12,14,16,18,20,22,24,26,28,30,32,34,36,38,40,42,44,46,48,50,52,54,56,58,60,62,64,66,68,70,72,74,76,78,80,82,84,86,88,90,92,94,96,98,100,102,104,106,108,110,112,114,116,118,120,122,124,126,-1,-1,-1,-1,-1,-1,-1,-1,-1,-1,-1,-1,-1,-1,-1,-1,-1,-1,-1,-1,-1,-1,-1,-1,-1,-1,-1,-1,-1,-1,-1,-1,-1,-1,-1,-1,-1,-1,-1,-1,-1,-1,-1,-1,-1,-1,-1,-1,-1,-1,-1,-1,-1,-1,-1,-1,-1,-1,-1,-1,-1,-1,-1,-1],"split_conditions":[3.809424E1,5.5215E1,6.4104996E1,4.2E1,4.2E1,4.2195E1,9.2065E1,3.6614998E1,5.5E0,5.567135E1,1.408E1,2.0205E3,1.05E1,3.5E0,1.2155E2,3.15E0,5.567135E1,3.0490982E1,5.5424786E1,7.695E1,3.7826748E1,2.7375E3,3.043693E1,5.065E0,4.369014E1,2.0205E3,2.0205E3,5.468701E1,2.0195E3,1.85E1,6.5E0,1.5E0,5.5643047E1,2.0195E3,5.5850327E1,3.0107101E1,3.6966957E1,4.460219E1,3.8254997E1,5E-1,2.0205E3,5.5858967E1,5E-1,7.8905E1,2.0205E3,9.0955E1,7.8149994E1,3.5E0,5.4952126E1,4.027879E1,5.5E0,2.5E0,4.3717148E1,5.498867E1,4.3768898E1,4.025991E1,1.2005E1,5.5030407E1,5.5E0,4.3385197E1,4.3614697E1,2.5E0,3.5E0,4.3668142E-1,1.7774787E0,6.220372E-1,9.0057695E-1,8.327119E-1,1.1321489E0,1.4266353E0,9.44617E-1,2.2189932E-1,5.9956634E-1,8.35566E-2,3.0323067E-1,7.355542E-1,3.1425261E-1,5.007741E-1,7.8433734E-1,1.1568849E0,1.524948E0,1.7291082E0,2.4206061E0,2.0445285E0,1.4665767E0,3.7654725E-1,1.1620848E0,8.744542E-1,1.2917093E0,4.6572793E-1,7.925281E-1,1.4947525E0,2.049796E0,8.628417E-1,1.2736951E0,1.6221614E-1,7.076365E-2,1.6502598E-1,2.4306592E-1,1.111775E0,9.142237E-2,2.469273E-1,4.1005945E-1,4.8146043E-2,2.9104945E-1,1.0291878E0,4.576691E-1,3.6440253E-1,4.9590063E-1,1.7099942E0,6.388589E-1,6.2156004E-1,3.2683858E-1,5.940837E-1,8.050961E-1,2.9435033E-1,4.3147078E-1,3.333344E-1,5.536059E-1,3.3255345E-1,8.915525E-1,2.6217477E0,1.2005408E0,-2.8858023E-2,1.0909125E0,1.5229881E0,6.530642E-1],"split_indices":[1,7,7,2,2,7,7,7,5,0,8,10,5,3,7,8,0,1,0,7,1,2,1,8,0,10,10,0,10,5,5,6,0,10,0,1,1,0,7,9,10,0,9,7,10,7,7,3,0,1,5,5,0,0,0,1,8,0,5,0,0,6,3,0,0,0,0,0,0,0,0,0,0,0,0,0,0,0,0,0,0,0,0,0,0,0,0,0,0,0,0,0,0,0,0,0,0,0,0,0,0,0,0,0,0,0,0,0,0,0,0,0,0,0,0,0,0,0,0,0,0,0,0,0,0,0,0],"split_type":[0,0,0,0,0,0,0,0,0,0,0,0,0,0,0,0,0,0,0,0,0,0,0,0,0,0,0,0,0,0,0,0,0,0,0,0,0,0,0,0,0,0,0,0,0,0,0,0,0,0,0,0,0,0,0,0,0,0,0,0,0,0,0,0,0,0,0,0,0,0,0,0,0,0,0,0,0,0,0,0,0,0,0,0,0,0,0,0,0,0,0,0,0,0,0,0,0,0,0,0,0,0,0,0,0,0,0,0,0,0,0,0,0,0,0,0,0,0,0,0,0,0,0,0,0,0,0],"sum_hessian":[3.759458E6,1.062294E6,2.697164E6,6.46237E5,4.16057E5,2.130484E6,5.6668E5,1.65501E5,4.80736E5,1.04638E5,3.11419E5,1.003427E6,1.127057E6,4.56103E5,1.10577E5,5.7989E4,1.07512E5,1.16845E5,3.63891E5,4.0522E4,6.4116E4,2.06247E5,1.05172E5,9.09033E5,9.4394E4,8.45093E5,2.81964E5,2.95087E5,1.61016E5,8.0124E4,3.0453E4,1.3477E4,4.4512E4,3.8269E4,6.9243E4,3.3747E4,8.3098E4,6.5777E4,2.98114E5,2.8612E4,1.191E4,6.0044E4,4.072E3,1.46978E5,5.9269E4,5.2838E4,5.2334E4,2.12256E5,6.96777E5,3.106E3,9.1288E4,7.7604E5,6.9053E4,2.48462E5,3.3502E4,1.29032E5,1.66055E5,1.06959E5,5.4057E4,6.6626E4,1.3498E4,9.728E3,2.0725E4,1.3364E4,1.13E2,1.3395E4,3.1117E4,2.0387E4,1.7882E4,5.3607E4,1.5636E4,8.814E3,2.4933E4,2.8345E4,5.4753E4,3.885E3,6.1892E4,1.39299E5,1.58815E5,1.5469E4,1.3143E4,1.0937E4,9.73E2,4.5953E4,1.4091E4,9.66E2,3.106E3,1.1614E5,3.0838E4,5.1411E4,7.858E3,3.7792E4,1.5046E4,3.032E4,2.2014E4,8.6204E4,1.26052E5,3.26631E5,3.70146E5,2.651E3,4.55E2,2.8299E4,6.2989E4,3.2918E4,7.43122E5,2.286E3,6.6767E4,1.26539E5,1.21923E5,8.11E2,3.2691E4,8.2945E4,4.6087E4,8.2988E4,8.3067E4,7.1183E4,3.5776E4,9.238E3,4.4819E4,3.625E3,6.3001E4,2.98E2,1.32E4,9.12E2,8.816E3,1.9818E4,9.07E2],"tree_param":{"num_deleted":"0","num_feature":"13","num_nodes":"127","size_leaf_vector":"0"}},{"base_weights":[1.153171E0,1.9930602E0,8.0735385E-1,1.6528224E0,3.0812345E0,6.575624E-1,1.6500793E0,2.6151712E0,1.3311149E0,3.48082E0,1.5497843E0,5.1115674E-1,9.13191E-1,1.4228798E0,2.7763267E0,1.9396187E0,3.1659477E0,1.0373743E0,1.7629055E0,1.3039536E0,3.6437554E0,1.3919926E0,3.703314E0,3.881014E-1,6.998285E-1,1.0960461E0,6.8029606E-1,1.1917601E0,1.923501E0,-3.428282E-1,2.8651557E0,1.1507198E0,2.1505556E0,2.9672532E0,4.6134057E0,5.238925E-1,1.1890725E0,1.3664533E0,2.2931278E0,3.3628643E-1,1.8384672E0,3.1363513E0,4.25051E0,2.8729398E0,1.2832791E0,3.320465E0,5.5748806E0,4.7952288E-1,2.2411743E-1,4.5529392E-1,8.503347E-1,7.37573E-1,1.2677255E0,9.3968964E-1,5.347705E-1,9.5184195E-1,1.6022552E0,2.580801E-1,2.0089102E0,-1.7133054E0,-2.2672527E-3,2.4457293E0,3.359462E0,7.985344E-1,1.4306617E0,1.7761286E0,2.5413404E0,3.5866788E-1,3.071653E0,5.0229797E0,3.5564268E0,3.020438E-1,7.305981E-1,6.300527E-1,1.3578475E0,1.6863201E0,9.360831E-1,2.0755703E0,3.7006404E0,-5.0197747E-2,2.1919038E0,1.3358821E0,2.6962216E0,4.0820646E0,2.70052E0,3.9806824E0,5.2189817E0,5.883006E0,2.7225242E0,1.1183143E0,2.2264633E0,3.39549E0,-1.1799295E0,4.500031E0,6.7930927E0,4.3165386E-1,1.0528437E0,1.6384064E-1,5.727182E-1,1.4136482E0,4.121668E-1,2.1897774E0,8.1844866E-1,1.702918E0,6.771427E-1,1.0165837E0,1.5082265E0,3.9420955E0,8.8397336E-1,3.917998E-1,7.805011E-1,1.1759462E0,6.744265E-1,1.4376836E0,2.0889802E0,-1.0099166E-1,6.449805E-1,4.394238E0,1.9187427E0,-3.047809E-1,-1.9310738E0,-2.5696027E-1,6.9512725E-1,2.2836802E0,3.6268678E0,1.1349348E0,3.4968665E0],"categories":[],"categories_nodes":[],"categories_segments":[],"categories_sizes":[],"default_left":[1,1,1,1,1,1,1,1,1,1,1,1,1,1,1,1,1,1,1,1,1,1,1,1,1,1,1,1,1,1,1,1,1,1,1,1,1,1,1,1,1,1,1,1,1,1,1,1,1,1,1,1,1,1,1,1,1,1,1,1,1,1,1,0,0,0,0,0,0,0,0,0,0,0,0,0,0,0,0,0,0,0,0,0,0,0,0,0,0,0,0,0,0,0,0,0,0,0,0,0,0,0,0,0,0,0,0,0,0,0,0,0,0,0,0,0,0,0,0,0,0,0,0,0,0,0,0],"id":3,"left_children":[1,3,5,7,9,11,13,15,17,19,21,23,25,27,29,31,33,35,37,39,41,43,45,47,49,51,53,55,57,59,61,63,65,67,69,71,73,75,77,79,81,83,85,87,89,91,93,95,97,99,101,103,105,107,109,111,113,115,117,119,121,123,125,-1,-1,-1,-1,-1,-1,-1,-1,-1,-1,-1,-1,-1,-1,-1,-1,-1,-1,-1,-1,-1,-1,-1,-1,-1,-1,-1,-1,-1,-1,-1,-1,-1,-1,-1,-1,-1,-1,-1,-1,-1,-1,-1,-1,-1,-1,-1,-1,-1,-1,-1,-1,-1,-1,-1,-1,-1,-1,-1,-1,-1,-1,-1,-1],"loss_changes":[1.091926E6,4.05948E5,3.3615725E5,2.5859975E5,1.5981575E5,8.462219E4,1.02835625E5,7.7860125E4,7.93995E4,7.346025E4,1.8359828E4,3.337875E4,3.5064812E4,3.869325E4,1.8693625E4,1.56386875E4,3.314175E4,2.9020562E4,5.3274438E4,7.4604414E3,5.93135E4,8.103742E3,2.6247617E3,1.3045047E4,2.0887062E4,2.8385688E4,1.3670156E4,2.2532688E4,1.5024531E4,8.723164E2,1.359175E4,1.954123E3,1.0846906E4,2.76055E4,6.0052188E3,3.8962344E3,2.7134188E4,1.9962344E4,3.31955E4,3.6820435E3,4.002129E3,4.324475E4,2.291175E4,1.5428398E3,7.297117E3,1.0388789E3,7.878047E2,1.5332367E4,6.544744E3,8.936273E3,1.50024375E4,8.7125E3,1.8836219E4,2.176904E4,8.1503516E3,8.97718E3,6.7574375E3,7.160846E2,2.1602031E4,1.1351575E2,2.6625565E2,6.7845938E3,9.198844E3,0E0,0E0,0E0,0E0,0E0,0E0,0E0,0E0,0E0,0E0,0E0,0E0,0E0,0E0,0E0,0E0,0E0,0E0,0E0,0E0,0E0,0E0,0E0,0E0,0E0,0E0,0E0,0E0,0E0,0E0,0E0,0E0,0E0,0E0,0E0,0E0,0E0,0E0,0E0,0E0,0E0,0E0,0E0,0E0,0E0,0E0,0E0,0E0,0E0,0E0,0E0,0E0,0E0,0E0,0E0,0E0,0E0,0E0,0E0,0E0,0E0,0E0,0E0,0E0],"parents":[2147483647,0,0,1,1,2,2,3,3,4,4,5,5,6,6,7,7,8,8,9,9,10,10,11,11,12,12,13,13,14,14,15,15,16,16,17,17,18,18,19,19,20,20,21,21,22,22,23,23,24,24,25,25,26,26,27,27,28,28,29,29,30,30,31,31,32,32,33,33,34,34,35,35,36,36,37,37,38,38,39,39,40,40,41,41,42,42,43,43,44,44,45,45,46,46,47,47,48,48,49,49,50,50,51,51,52,52,53,53,54,54,55,55,56,56,57,57,58,58,59,59,60,60,61,61,62,62],"right_children":[2,4,6,8,10,12,14,16,18,20,22,24,26,28,30,32,34,36,38,40,42,44,46,48,50,52,54,56,58,60,62,64,66,68,70,72,74,76,78,80,82,84,86,88,90,92,94,96,98,100,102,104,106,108,110,112,114,116,118,120,122,124,126,-1,-1,-1,-1,-1,-1,-1,-1,-1,-1,-1,-1,-1,-1,-1,-1,-1,-1,-1,-1,-1,-1,-1,-1,-1,-1,-1,-1,-1,-1,-1,-1,-1,-1,-1,-1,-1,-1,-1,-1,-1,-1,-1,-1,-1,-1,-1,-1,-1,-1,-1,-1,-1,-1,-1,-1,-1,-1,-1,-1,-1,-1,-1,-1],"split_conditions":[3.8254974E1,6.4035E1,7.0335E1,4.2E1,2.7375E3,4.9975E1,1.0203E2,4.077E1,1.0285E1,5.553645E1,1.16350006E2,2.0195E3,3.5E0,1.4065001E1,2.5E0,2.4619999E1,2.0205E3,3.2425E1,5.9830204E1,5.536004E1,2.0195E3,4.465038E1,3.7254997E1,8.295743E1,5.5E0,5.5E0,3.999E3,2.0195E3,4.3385197E1,1.5E0,1.8005001E1,1.8650002E1,2.0195E3,3.7314827E1,3.7696297E1,2.0195E3,5.5414654E1,4.51E2,2.0205E3,3.7964596E1,2.0195E3,4.2E1,2.0205E3,4.4498585E1,2.0205E3,3.61E2,2.5E0,8.288585E1,5.503041E1,4.3693497E1,4.391753E1,4.37189E1,4.891706E1,4.3688526E1,2.5E0,8.295682E1,2.0205E3,5E-1,4.3702656E1,3.9089294E1,2.275E1,2.0205E3,4.3384132E1,2.3956032E-1,4.2919853E-1,5.3283864E-1,7.624021E-1,1.0760037E-1,9.214959E-1,1.506894E0,1.066928E0,9.061314E-2,2.1917944E-1,1.8901582E-1,4.0735427E-1,5.0589603E-1,2.8082493E-1,6.226711E-1,1.1101922E0,-1.5059325E-2,6.575712E-1,4.0076464E-1,8.088665E-1,1.2246194E0,8.1015605E-1,1.1942048E0,1.5656946E0,1.7649019E0,8.1675726E-1,3.3549428E-1,6.67939E-1,1.0186471E0,-3.5397887E-1,1.3500093E0,2.0379279E0,1.2949616E-1,3.1585312E-1,4.915219E-2,1.7181547E-1,4.240945E-1,1.23650044E-1,6.5693325E-1,2.4553461E-1,5.1087546E-1,2.031428E-1,3.0497512E-1,4.5246798E-1,1.1826288E0,2.6519203E-1,1.1753995E-1,2.3415035E-1,3.527839E-1,2.0232795E-1,4.3130508E-1,6.266941E-1,-3.02975E-2,1.9349416E-1,1.3182714E0,5.756228E-1,-9.143427E-2,-5.7932216E-1,-7.708809E-2,2.0853819E-1,6.851041E-1,1.0880604E0,3.4048045E-1,1.04906E0],"split_indices":[1,7,7,2,2,7,7,7,8,0,7,10,3,8,5,7,10,7,0,0,10,0,8,1,5,5,2,10,0,5,8,7,10,1,1,10,0,2,10,1,10,2,10,0,10,7,3,1,0,0,0,0,1,0,6,1,10,9,0,1,8,10,0,0,0,0,0,0,0,0,0,0,0,0,0,0,0,0,0,0,0,0,0,0,0,0,0,0,0,0,0,0,0,0,0,0,0,0,0,0,0,0,0,0,0,0,0,0,0,0,0,0,0,0,0,0,0,0,0,0,0,0,0,0,0,0,0],"split_type":[0,0,0,0,0,0,0,0,0,0,0,0,0,0,0,0,0,0,0,0,0,0,0,0,0,0,0,0,0,0,0,0,0,0,0,0,0,0,0,0,0,0,0,0,0,0,0,0,0,0,0,0,0,0,0,0,0,0,0,0,0,0,0,0,0,0,0,0,0,0,0,0,0,0,0,0,0,0,0,0,0,0,0,0,0,0,0,0,0,0,0,0,0,0,0,0,0,0,0,0,0,0,0,0,0,0,0,0,0,0,0,0,0,0,0,0,0,0,0,0,0,0,0,0,0,0,0],"sum_hessian":[3.759458E6,1.096463E6,2.662995E6,8.35295E5,2.61168E5,2.261095E6,4.019E5,2.09273E5,6.26022E5,2.07124E5,5.4044E4,1.437692E6,8.23403E5,3.34436E5,6.7464E4,9.3992E4,1.15281E5,3.72571E5,2.53451E5,1.4424E4,1.927E5,5.0356E4,3.688E3,8.7016E5,5.67532E5,4.61252E5,3.62151E5,2.28807E5,1.05629E5,1.868E3,6.5596E4,1.9831E4,7.4161E4,1.01369E5,1.3912E4,8.4968E4,2.87603E5,1.45021E5,1.0843E5,5.133E3,9.291E3,1.04945E5,8.7755E4,3.442E3,4.6914E4,3.064E3,6.24E2,5.58688E5,3.11472E5,2.16225E5,3.51307E5,1.49369E5,3.11883E5,1.30153E5,2.31998E5,1.44409E5,8.4398E4,5.153E3,1.00476E5,3.71E2,1.497E3,3.5489E4,3.0107E4,8.784E3,1.1047E4,3.7876E4,3.6285E4,3.901E3,9.7468E4,1.0024E4,3.888E3,4.0984E4,4.3984E4,6.6696E4,2.20907E5,8.3189E4,6.1832E4,9.3916E4,1.4514E4,4.249E3,8.84E2,5.86E3,3.431E3,3.3104E4,7.1841E4,6.8637E4,1.9118E4,1.62E2,3.28E3,3.9932E4,6.982E3,3.014E3,5E1,3.34E2,2.9E2,5.15637E5,4.3051E4,2.65556E5,4.5916E4,9.31E3,2.06915E5,8.167E3,3.4314E5,8.798E3,1.40571E5,1.52569E5,1.59314E5,2.37E3,1.27783E5,1.46667E5,8.5331E4,7.9878E4,6.4531E4,6.3075E4,2.1323E4,2.673E3,2.48E3,3.658E3,9.6818E4,5E1,3.21E2,1.097E3,4E2,3.121E4,4.279E3,1.752E3,2.8355E4],"tree_param":{"num_deleted":"0","num_feature":"13","num_nodes":"127","size_leaf_vector":"0"}},{"base_weights":[8.07229E-1,1.4530869E0,5.818638E-1,1.2590667E0,2.6116707E0,4.8531777E-1,1.220049E0,1.9642009E0,9.906034E-1,2.8961527E0,1.3952664E0,3.800221E-1,6.833138E-1,9.867262E-1,1.8327745E0,1.5626701E0,2.5049293E0,1.4059384E0,7.085644E-1,2.7022486E0,4.051511E0,8.911691E-1,1.9589827E0,3.4115297E-1,7.547977E-1,6.2350935E-1,1.2522326E0,7.8715616E-1,1.3471551E0,1.7260356E0,3.1524863E0,4.2988715E-1,1.6787056E0,-2.0152853E-1,2.5934837E0,6.327461E-1,1.6466558E0,3.4558085E-1,1.0591381E0,3.5020716E0,2.3060014E0,4.15029E0,-2.525288E0,1.4384031E0,5.5876994E-1,1.7768557E0,3.6296554E0,9.8906225E-1,3.2354468E-1,1.6681762E0,7.1434635E-1,5.718748E-1,1.1436619E0,2.8361385E0,1.2043505E0,7.175941E-1,1.526947E0,9.251937E-1,1.5928428E0,1.5854158E0,2.6847198E0,-1.9797482E-2,3.4142709E0,4.1838203E-2,8.5351336E-1,1.9231163E0,9.15249E-1,-5.17948E-1,2.1988152E-1,2.1469054E0,3.1157322E0,2.5821182E-1,8.2021517E-1,1.060834E0,2.0764532E0,5.294539E-1,-3.0626275E-2,7.7482307E-1,1.4514995E0,2.7380905E0,4.0910554E0,1.9165069E0,2.9952717E0,1.2116348E0,4.256563E0,-3.7380047E0,-1.0951233E0,1.2186642E0,2.7876408E0,9.312123E-1,-3.2561794E-1,4.753856E0,1.7101904E0,-1.2629049E0,4.004472E0,1.7936234E0,-2.9311472E-1,2.901976E-1,6.6503173E-1,2.561201E0,-2.322147E-1,4.0263358E-1,8.860573E-1,3.2637408E-1,6.508437E-1,5.417441E0,1.0988716E0,5.801731E0,-1.6749413E-1,7.6909876E-1,1.358606E0,-4.1432586E-2,7.749865E-1,1.6407436E0,5.0852776E-1,3.9866608E-1,1.2800106E0,3.4041615E0,1.5344422E0,1.359643E0,2.0842628E0,2.4286602E0,3.3177962E0,2.7651758E0,-1.9278119E0,3.4908862E0,-9.9466455E-1],"categories":[],"categories_nodes":[],"categories_segments":[],"categories_sizes":[],"default_left":[1,1,1,1,1,1,1,1,1,1,1,1,1,1,1,1,1,1,1,1,1,1,1,1,1,1,1,1,1,1,1,1,1,1,1,1,1,1,1,1,1,1,1,1,1,1,1,1,1,1,1,1,1,1,1,1,1,1,1,1,1,1,1,0,0,0,0,0,0,0,0,0,0,0,0,0,0,0,0,0,0,0,0,0,0,0,0,0,0,0,0,0,0,0,0,0,0,0,0,0,0,0,0,0,0,0,0,0,0,0,0,0,0,0,0,0,0,0,0,0,0,0,0,0,0,0,0],"id":4,"left_children":[1,3,5,7,9,11,13,15,17,19,21,23,25,27,29,31,33,35,37,39,41,43,45,47,49,51,53,55,57,59,61,63,65,67,69,71,73,75,77,79,81,83,85,87,89,91,93,95,97,99,101,103,105,107,109,111,113,115,117,119,121,123,125,-1,-1,-1,-1,-1,-1,-1,-1,-1,-1,-1,-1,-1,-1,-1,-1,-1,-1,-1,-1,-1,-1,-1,-1,-1,-1,-1,-1,-1,-1,-1,-1,-1,-1,-1,-1,-1,-1,-1,-1,-1,-1,-1,-1,-1,-1,-1,-1,-1,-1,-1,-1,-1,-1,-1,-1,-1,-1,-1,-1,-1,-1,-1,-1],"loss_changes":[5.4720275E5,2.1859988E5,1.7171681E5,1.576855E5,4.8267188E4,5.0468062E4,5.2353562E4,4.9866312E4,7.067006E4,2.5316188E4,7.5122227E3,2.3020766E4,2.8593875E4,1.9076719E4,1.42210625E4,1.7325312E4,2.3458875E4,4.541097E4,4.572272E4,3.0673375E4,1.0564031E4,2.538704E3,3.791504E3,1.6334859E4,5.485453E3,2.0424438E4,6.059383E3,8.783719E3,9.797281E3,1.2592219E4,6.2749766E3,2.0135491E3,2.2308875E4,4.137418E2,2.2097625E4,4.0671914E3,4.6845844E4,1.2211504E4,2.0388656E4,1.4419406E4,1.7374812E4,4.9932188E3,4.138932E2,1.5605361E3,2.8616577E3,2.2259648E3,2.2533105E3,3.908024E4,1.58735625E4,1.0687211E4,7.610992E3,1.3411953E4,1.3139852E4,2.0889178E4,5.2088203E3,6.797375E3,1.6994258E3,6.497869E3,6.313672E3,9.174953E3,1.9292578E3,3.0713755E3,2.3612656E3,0E0,0E0,0E0,0E0,0E0,0E0,0E0,0E0,0E0,0E0,0E0,0E0,0E0,0E0,0E0,0E0,0E0,0E0,0E0,0E0,0E0,0E0,0E0,0E0,0E0,0E0,0E0,0E0,0E0,0E0,0E0,0E0,0E0,0E0,0E0,0E0,0E0,0E0,0E0,0E0,0E0,0E0,0E0,0E0,0E0,0E0,0E0,0E0,0E0,0E0,0E0,0E0,0E0,0E0,0E0,0E0,0E0,0E0,0E0,0E0,0E0,0E0,0E0,0E0],"parents":[2147483647,0,0,1,1,2,2,3,3,4,4,5,5,6,6,7,7,8,8,9,9,10,10,11,11,12,12,13,13,14,14,15,15,16,16,17,17,18,18,19,19,20,20,21,21,22,22,23,23,24,24,25,25,26,26,27,27,28,28,29,29,30,30,31,31,32,32,33,33,34,34,35,35,36,36,37,37,38,38,39,39,40,40,41,41,42,42,43,43,44,44,45,45,46,46,47,47,48,48,49,49,50,50,51,51,52,52,53,53,54,54,55,55,56,56,57,57,58,58,59,59,60,60,61,61,62,62],"right_children":[2,4,6,8,10,12,14,16,18,20,22,24,26,28,30,32,34,36,38,40,42,44,46,48,50,52,54,56,58,60,62,64,66,68,70,72,74,76,78,80,82,84,86,88,90,92,94,96,98,100,102,104,106,108,110,112,114,116,118,120,122,124,126,-1,-1,-1,-1,-1,-1,-1,-1,-1,-1,-1,-1,-1,-1,-1,-1,-1,-1,-1,-1,-1,-1,-1,-1,-1,-1,-1,-1,-1,-1,-1,-1,-1,-1,-1,-1,-1,-1,-1,-1,-1,-1,-1,-1,-1,-1,-1,-1,-1,-1,-1,-1,-1,-1,-1,-1,-1,-1,-1,-1,-1,-1,-1,-1],"split_conditions":[3.7887115E1,7.4085E1,7.3395004E1,4.2E1,2.7375E3,5.1055E1,1.6085E1,4.895E1,3.0432337E1,1.0291E2,8.819E1,2.0205E3,2.0205E3,1.05E1,1.5001001E2,5.5564316E1,3.7302917E1,3.0193638E1,1.15E1,4.2E1,3.015E2,3.0679115E1,1.401E2,4.3696316E1,4.459296E1,1.85E1,4.371759E1,2.0205E3,5E-1,2.0205E3,2.5E0,1.45E1,3.77119E1,2.0195E3,2.0195E3,2.0195E3,4.103E1,5.5960438E1,1.5E0,5.567138E1,1.5295E1,5.5418983E1,5.235E2,1.65E1,5.0656273E1,4.461628E1,2.5E0,4.0289616E1,1.85E1,4.027879E1,5.4963875E1,5E-1,4.3618813E1,4.0274914E1,5.5E0,3.5E0,5.7186028E1,4.8971283E1,4.3916344E1,1.65E1,6.082E3,2.36E2,5.19E2,1.2551461E-2,2.56054E-1,5.7693493E-1,2.745747E-1,-1.5538439E-1,6.596446E-2,6.4407164E-1,9.347197E-1,7.746355E-2,2.4606456E-1,3.1825024E-1,6.22936E-1,1.5883617E-1,-9.187883E-3,2.3244692E-1,4.3544987E-1,8.2142717E-1,1.2273166E0,5.7495207E-1,8.9858156E-1,3.6349043E-1,1.276969E0,-1.1214014E0,-3.28537E-1,3.6559927E-1,8.3629227E-1,2.793637E-1,-9.768539E-2,1.4261569E0,5.130572E-1,-3.7887147E-1,1.2013416E0,5.3808707E-1,-8.793442E-2,8.705929E-2,1.9950953E-1,7.683604E-1,-6.966441E-2,1.2079008E-1,2.658172E-1,9.791223E-2,1.9525312E-1,1.6252323E0,3.296615E-1,1.7405194E0,-5.0248243E-2,2.3072964E-1,4.075818E-1,-1.2429777E-2,2.3249596E-1,4.922231E-1,1.5255833E-1,1.1959983E-1,3.840032E-1,1.0212485E0,4.6033266E-1,4.078929E-1,6.252789E-1,7.2859806E-1,9.953389E-1,8.2955277E-1,-5.783436E-1,1.0472659E0,-2.983994E-1],"split_indices":[1,7,7,2,2,7,8,7,1,7,7,10,10,5,7,0,1,1,5,2,7,1,7,0,0,5,0,10,9,10,6,5,1,10,10,10,7,0,6,0,8,0,7,5,0,0,6,1,5,1,0,9,0,1,5,5,0,1,0,5,2,7,7,0,0,0,0,0,0,0,0,0,0,0,0,0,0,0,0,0,0,0,0,0,0,0,0,0,0,0,0,0,0,0,0,0,0,0,0,0,0,0,0,0,0,0,0,0,0,0,0,0,0,0,0,0,0,0,0,0,0,0,0,0,0,0,0],"split_type":[0,0,0,0,0,0,0,0,0,0,0,0,0,0,0,0,0,0,0,0,0,0,0,0,0,0,0,0,0,0,0,0,0,0,0,0,0,0,0,0,0,0,0,0,0,0,0,0,0,0,0,0,0,0,0,0,0,0,0,0,0,0,0,0,0,0,0,0,0,0,0,0,0,0,0,0,0,0,0,0,0,0,0,0,0,0,0,0,0,0,0,0,0,0,0,0,0,0,0,0,0,0,0,0,0,0,0,0,0,0,0,0,0,0,0,0,0,0,0,0,0,0,0,0,0,0,0],"sum_hessian":[3.759458E6,9.72483E5,2.786975E6,8.3299E5,1.39493E5,2.420759E6,3.66216E5,2.2969E5,6.033E5,1.13052E5,2.6441E4,1.580331E6,8.40428E5,2.65223E5,1.00993E5,1.31813E5,9.7877E4,2.43991E5,3.59309E5,9.6808E4,1.6244E4,1.396E4,1.2481E4,1.431833E6,1.48498E5,7.60488E5,7.994E4,1.70706E5,9.4517E4,9.3438E4,7.555E3,1.2248E4,1.19565E5,3.101E3,9.4776E4,5.7928E4,1.86063E5,1.76531E5,1.82778E5,3.2069E4,6.4739E4,1.6004E4,2.4E2,5.274E3,8.686E3,1.1256E4,1.225E3,3.7882E4,1.393951E6,6.296E3,1.42202E5,6.91815E5,6.8673E4,2.344E3,7.7596E4,1.56036E5,1.467E4,3.4783E4,5.9734E4,8.1488E4,1.195E4,5.76E2,6.979E3,6.393E3,5.855E3,9.0569E4,2.8996E4,1.771E3,1.33E3,5.1092E4,4.3684E4,1.9324E4,3.8604E4,7.8741E4,1.07322E5,1.18576E5,5.7955E4,1.05983E5,7.6795E4,1.3963E4,1.8106E4,4.1367E4,2.3372E4,5.59E2,1.5445E4,1.29E2,1.11E2,4.537E3,7.37E2,6.112E3,2.574E3,2.45E2,1.1011E4,8.7E1,1.138E3,2.3276E4,1.4606E4,1.26994E6,1.24011E5,4.283E3,2.013E3,5.0511E4,9.1691E4,1.68374E5,5.23441E5,7.11E2,6.7962E4,1.179E3,1.165E3,2.0306E4,5.729E4,1.0969E4,1.45067E5,1.3195E4,1.475E3,1.4004E4,2.0779E4,1.864E3,5.787E4,5.6101E4,2.5387E4,8.512E3,3.438E3,2.34E2,3.42E2,6.86E3,1.19E2],"tree_param":{"num_deleted":"0","num_feature":"13","num_nodes":"127","size_leaf_vector":"0"}},{"base_weights":[5.6506705E-1,9.882227E-1,3.9071187E-1,7.614097E-1,1.4798397E0,3.4715044E-1,1.2303722E0,1.3313026E0,5.817557E-1,1.3065935E0,2.1834004E0,1.53462E-1,4.310816E-1,-1.1647293E-1,1.3046236E0,1.005638E0,1.9376628E0,3.5024828E-1,8.176413E-1,9.015553E-1,1.651102E0,1.2811228E0,2.4351926E0,-1.1862833E-1,1.8739572E-1,3.244421E-1,5.945327E-1,1.5129508E0,-3.208666E-1,1.4128195E0,3.959262E-1,-3.6931712E-2,1.1045992E0,4.2347014E-1,2.0850258E0,9.6620746E-2,4.648299E-1,3.297382E-1,9.897385E-1,3.923953E-1,1.0527999E0,1.8759077E0,7.1599305E-1,1.0772542E0,2.6515374E0,2.5513809E0,1.2822983E0,-1.4902362E-1,1.8198932E0,1.3021809E-1,3.6620012E-1,4.2237246E-1,1.5310499E-1,5.0702393E-1,1.0333624E0,4.131789E0,-5.697171E-1,-1.2758904E0,-1.9337583E-1,-3.5041798E-2,1.4836677E0,9.161955E-2,8.855205E-1,-5.859149E-1,2.761235E-1,1.2592472E0,2.7975354E-1,-2.5756449E-1,8.732446E-1,2.324731E0,1.2692077E0,-6.215576E-1,1.5395169E-1,7.339219E-2,6.116877E-1,6.912506E-1,-3.2834911E-3,1.0983258E0,2.6787132E-1,1.8199946E-1,6.36877E-1,5.082677E-1,1.1945802E0,1.2052484E0,2.1063871E0,2.0926845E0,5.9017426E-1,9.0005493E-1,1.9029685E0,5.5011636E-1,2.8802924E0,2.3009388E0,3.0635142E0,1.6947428E0,4.7110537E-1,6.803452E-1,-1.7570388E-1,1.4231925E0,3.4879525E0,-3.0100036E-1,1.4804927E-1,1.4847697E-1,5.388421E-1,3.5919935E-1,1.0580306E0,7.6229304E-2,5.6630254E-1,1.4764793E0,4.6705854E-1,5.1670223E-1,1.275437E0,2.901983E0,4.7419934E0,-2.0095037E-1,-2.3552306E0,-2.44249E-1,-1.5365251E0,-4.010215E-1,4.3623877E-1,-4.5192245E-1,1.7613143E-1,1.241468E0,1.8982657E0,5.6802475E-1,-1.5228724E-1,9.456672E-1,-1.5853269E0],"categories":[],"categories_nodes":[],"categories_segments":[],"categories_sizes":[],"default_left":[1,1,1,1,1,1,1,1,1,1,1,1,1,1,1,1,1,1,1,1,1,1,1,1,1,1,1,1,1,1,1,1,1,1,1,1,1,1,1,1,1,1,1,1,1,1,1,1,1,1,1,1,1,1,1,1,1,1,1,1,1,1,1,0,0,0,0,0,0,0,0,0,0,0,0,0,0,0,0,0,0,0,0,0,0,0,0,0,0,0,0,0,0,0,0,0,0,0,0,0,0,0,0,0,0,0,0,0,0,0,0,0,0,0,0,0,0,0,0,0,0,0,0,0,0,0,0],"id":5,"left_children":[1,3,5,7,9,11,13,15,17,19,21,23,25,27,29,31,33,35,37,39,41,43,45,47,49,51,53,55,57,59,61,63,65,67,69,71,73,75,77,79,81,83,85,87,89,91,93,95,97,99,101,103,105,107,109,111,113,115,117,119,121,123,125,-1,-1,-1,-1,-1,-1,-1,-1,-1,-1,-1,-1,-1,-1,-1,-1,-1,-1,-1,-1,-1,-1,-1,-1,-1,-1,-1,-1,-1,-1,-1,-1,-1,-1,-1,-1,-1,-1,-1,-1,-1,-1,-1,-1,-1,-1,-1,-1,-1,-1,-1,-1,-1,-1,-1,-1,-1,-1,-1,-1,-1,-1,-1,-1],"loss_changes":[2.7737038E5,1.22322E5,9.738316E4,7.685703E4,4.2211625E4,4.1147188E4,1.3132234E4,3.5528062E4,3.1168484E4,3.877725E4,1.5543281E4,7.0653574E3,3.0780156E4,2.2858328E3,1.2235344E4,1.2077477E4,1.4027234E4,8.371137E3,2.3737578E4,9.836094E3,3.1567719E4,4.168914E3,7.1630625E3,4.9999746E3,6.955801E3,1.7931398E4,2.6774094E4,4.174795E3,7.422258E2,1.1407891E4,1.9729509E3,1.7443896E3,1.3637289E4,1.7085269E3,1.1200828E4,3.690919E3,1.1406031E4,8.8750205E3,1.6381453E4,1.5047007E3,7.602422E3,1.8711188E4,5.040494E3,1.9003955E3,9.276279E2,6.226375E3,1.638605E3,1.8487628E3,8.6188916E2,3.963954E3,6.1963633E3,2.7306344E4,1.2346031E4,2.2521969E4,1.4497492E4,2.4063525E2,2.8067972E2,1.9268164E2,7.0366943E2,4.5688818E2,1.0644E4,9.491956E2,7.558601E2,0E0,0E0,0E0,0E0,0E0,0E0,0E0,0E0,0E0,0E0,0E0,0E0,0E0,0E0,0E0,0E0,0E0,0E0,0E0,0E0,0E0,0E0,0E0,0E0,0E0,0E0,0E0,0E0,0E0,0E0,0E0,0E0,0E0,0E0,0E0,0E0,0E0,0E0,0E0,0E0,0E0,0E0,0E0,0E0,0E0,0E0,0E0,0E0,0E0,0E0,0E0,0E0,0E0,0E0,0E0,0E0,0E0,0E0,0E0,0E0,0E0,0E0,0E0,0E0],"parents":[2147483647,0,0,1,1,2,2,3,3,4,4,5,5,6,6,7,7,8,8,9,9,10,10,11,11,12,12,13,13,14,14,15,15,16,16,17,17,18,18,19,19,20,20,21,21,22,22,23,23,24,24,25,25,26,26,27,27,28,28,29,29,30,30,31,31,32,32,33,33,34,34,35,35,36,36,37,37,38,38,39,39,40,40,41,41,42,42,43,43,44,44,45,45,46,46,47,47,48,48,49,49,50,50,51,51,52,52,53,53,54,54,55,55,56,56,57,57,58,58,59,59,60,60,61,61,62,62],"right_children":[2,4,6,8,10,12,14,16,18,20,22,24,26,28,30,32,34,36,38,40,42,44,46,48,50,52,54,56,58,60,62,64,66,68,70,72,74,76,78,80,82,84,86,88,90,92,94,96,98,100,102,104,106,108,110,112,114,116,118,120,122,124,126,-1,-1,-1,-1,-1,-1,-1,-1,-1,-1,-1,-1,-1,-1,-1,-1,-1,-1,-1,-1,-1,-1,-1,-1,-1,-1,-1,-1,-1,-1,-1,-1,-1,-1,-1,-1,-1,-1,-1,-1,-1,-1,-1,-1,-1,-1,-1,-1,-1,-1,-1,-1,-1,-1,-1,-1,-1,-1,-1,-1,-1,-1,-1,-1],"split_conditions":[3.826005E1,1.2235E1,8.9125E1,4.2E1,8.1104996E1,3.9364998E1,3.5E0,5.245E1,2.0195E3,2.0195E3,5.554139E1,2.6985E1,2.0195E3,4.368425E1,3.5E0,3.7387974E1,3.737269E1,5.5E0,5.5411438E1,4.2585E1,2.7375E3,1.2829999E2,6.0026627E1,2.5E0,1.05E1,8.2956894E1,9.651E3,4.1884468E1,1.5E0,4.338389E1,5.574556E1,3.7301353E1,3.776156E1,1.55E1,3.771196E1,2.5E0,5E-1,5.0647816E1,2.7705E3,3.746026E1,5.557212E1,4.1725E1,4.465256E1,2.0205E3,3.5E0,5.9902096E1,6.0051575E1,9.95E0,9.5E0,2.5E0,4.8997185E1,8.285161E1,5.5030407E1,4.374334E1,5.4972687E1,1.5E0,4.3487373E1,3.9753113E1,1.3335E2,4.2957355E1,1.5E0,9.475E1,2.505E2,-1.7577448E-1,8.283705E-2,3.7777418E-1,8.392607E-2,-7.7269346E-2,2.6197338E-1,6.9741935E-1,3.8076234E-1,-1.8646729E-1,4.618551E-2,2.2017658E-2,1.8350632E-1,2.073752E-1,-9.850474E-4,3.2949775E-1,8.0361396E-2,5.459984E-2,1.910631E-1,1.5248032E-1,3.5837406E-1,3.6157453E-1,6.3191617E-1,6.2780535E-1,1.7705229E-1,2.700165E-1,5.708906E-1,1.6503492E-1,8.6408776E-1,6.902817E-1,9.190543E-1,5.0842285E-1,1.4133161E-1,2.0410356E-1,-5.2711166E-2,4.2695776E-1,1.0463858E0,-9.030011E-2,4.441478E-2,4.4543095E-2,1.6165262E-1,1.0775981E-1,3.174092E-1,2.2868792E-2,1.6989076E-1,4.429438E-1,1.4011757E-1,1.5501067E-1,3.8263112E-1,8.705949E-1,1.4225981E0,-6.0285114E-2,-7.065692E-1,-7.32747E-2,-4.6095756E-1,-1.20306455E-1,1.3087164E-1,-1.3557674E-1,5.2839432E-2,3.724404E-1,5.6947976E-1,1.7040743E-1,-4.5686174E-2,2.8370017E-1,-4.755981E-1],"split_indices":[1,8,7,2,7,7,5,7,10,10,0,7,10,0,3,1,1,5,0,7,2,7,0,6,5,1,2,1,5,0,0,1,1,5,1,5,9,0,2,1,0,7,0,10,5,0,0,7,5,5,1,1,0,0,0,3,0,1,7,0,3,7,7,0,0,0,0,0,0,0,0,0,0,0,0,0,0,0,0,0,0,0,0,0,0,0,0,0,0,0,0,0,0,0,0,0,0,0,0,0,0,0,0,0,0,0,0,0,0,0,0,0,0,0,0,0,0,0,0,0,0,0,0,0,0,0,0],"split_type":[0,0,0,0,0,0,0,0,0,0,0,0,0,0,0,0,0,0,0,0,0,0,0,0,0,0,0,0,0,0,0,0,0,0,0,0,0,0,0,0,0,0,0,0,0,0,0,0,0,0,0,0,0,0,0,0,0,0,0,0,0,0,0,0,0,0,0,0,0,0,0,0,0,0,0,0,0,0,0,0,0,0,0,0,0,0,0,0,0,0,0,0,0,0,0,0,0,0,0,0,0,0,0,0,0,0,0,0,0,0,0,0,0,0,0,0,0,0,0,0,0,0,0,0,0,0,0],"sum_hessian":[3.759458E6,1.097018E6,2.66244E6,7.50684E5,3.46334E5,2.531127E6,1.31313E5,1.79925E5,5.70759E5,2.77905E5,6.8429E4,7.65222E5,1.765905E6,6.861E3,1.24452E5,1.17058E5,6.2867E4,2.88054E5,2.82705E5,1.27733E5,1.50172E5,1.4931E4,5.3498E4,8.4852E4,6.8037E5,1.068677E6,6.97228E5,7.64E2,6.097E3,1.1121E5,1.3242E4,1.0148E4,1.0691E5,5.576E3,5.7291E4,8.9639E4,1.98415E5,7.3717E4,2.08988E5,2.9254E4,9.8479E4,1.21066E5,2.9106E4,1.2999E4,1.932E3,4.8599E4,4.899E3,8.3543E4,1.309E3,5.1552E5,1.6485E5,6.80007E5,3.8867E5,5.81309E5,1.15919E5,3.38E2,4.26E2,7.17E2,5.38E3,5.188E3,1.06022E5,8.167E3,5.075E3,3.685E3,6.463E3,9.003E4,1.688E4,2.218E3,3.358E3,4.4279E4,1.3012E4,6.626E3,8.3013E4,5.4132E4,1.44283E5,3.5346E4,3.8371E4,1.81661E5,2.7327E4,1.5724E4,1.353E4,2.0345E4,7.8134E4,3.0966E4,9.01E4,2.436E3,2.667E4,1.0704E4,2.295E3,1.9E2,1.742E3,3.2642E4,1.5957E4,3.247E3,1.652E3,2.603E3,8.094E4,1.059E3,2.5E2,2.047E4,4.9505E5,7.2907E4,9.1943E4,6.18537E5,6.147E4,3.27702E5,6.0968E4,2.3014E4,5.58295E5,3.6985E4,7.8934E4,1.14E2,2.24E2,3.54E2,7.2E1,1.45E2,5.72E2,4.046E3,1.334E3,1.744E3,3.444E3,6.6928E4,3.9094E4,2.765E3,5.402E3,4.955E3,1.2E2],"tree_param":{"num_deleted":"0","num_feature":"13","num_nodes":"127","size_leaf_vector":"0"}},{"base_weights":[3.9555076E-1,2.147164E-1,6.1343944E-1,4.8674923E-1,1.488444E-1,1.0451194E0,4.3581745E-1,7.269132E-1,-2.964699E-1,-1.7483301E-2,3.3059627E-1,1.1273687E0,-8.080557E-3,2.668526E-1,8.973477E-1,2.0952954E0,4.885776E-1,-6.6073394E-1,-2.032253E-1,-1.9122797E-1,9.522036E-2,6.872086E-1,1.1612068E-1,7.1349525E-1,1.3604409E0,5.657848E-2,-7.8757304E-1,1.4402704E-2,4.0925995E-1,1.3767098E0,6.6919655E-1,7.854983E-1,3.1253061E0,7.10409E-1,1.8450792E-1,-1.0070559E-1,-8.3615345E-1,-1.6605291E-1,-4.557379E-1,-2.0531741E-1,9.6496874E-1,1.7589965E-1,-1.8133594E-1,5.5600476E-1,1.277967E0,4.1367635E-2,7.961636E-1,2.259329E-1,8.384495E-1,8.940699E-1,1.5504631E0,-3.8108847E-1,1.9290157E-1,-9.87064E-1,-4.6112582E-1,-3.4669718E-1,8.981064E-2,3.4901363E-1,8.2970065E-1,2.357234E0,8.9827937E-1,4.592951E-1,1.03188E0,2.0984568E-1,1.1857947E0,2.4850855E0,3.6760044E0,5.870176E-1,1.6203661E0,3.2576486E-1,-1.077118E-3,-2.9995897E-1,2.0778236E-1,-6.874281E-1,-1.2947146E0,-2.1818717E-1,1.196533E-1,-6.9036645E-1,-8.6023755E-2,-2.9956985E-2,-2.8260842E-1,1.0545993E0,-2.6344034E-1,1.3186818E-1,9.313449E-1,-2.3874572E-1,1.5969113E0,3.0991176E-1,7.207401E-1,1.1949699E0,3.1744404E0,3.9598656E-1,-1.971958E-3,9.3047756E-1,4.0480447E-1,2.4347768E0,2.0034237E-1,7.5661445E-1,1.4991206E0,4.5050663E-1,1.1642367E0,2.2135794E0,1.1768707E0,-3.4607986E-1,-3.2222977E0,2.8156486E-1,-1.18179426E-1,-6.913113E-1,-1.173968E0,-3.2775638E-1,-8.811033E-1,-5.267682E-1,-1.7783003E-1,9.54726E-4,3.3770195E-1,2.681579E-1,5.63267E-1,1.1312056E0,4.3475974E-1,3.8588095E-1,2.8933299E0,7.564074E-1,2.023335E0,1.0600148E0,2.715623E-1,1.663494E0,7.8372216E-1],"categories":[],"categories_nodes":[],"categories_segments":[],"categories_sizes":[],"default_left":[1,1,1,1,1,1,1,1,1,1,1,1,1,1,1,1,1,1,1,1,1,1,1,1,1,1,1,1,1,1,1,1,1,1,1,1,1,1,1,1,1,1,1,1,1,1,1,1,1,1,1,1,1,1,1,1,1,1,1,1,1,1,1,0,0,0,0,0,0,0,0,0,0,0,0,0,0,0,0,0,0,0,0,0,0,0,0,0,0,0,0,0,0,0,0,0,0,0,0,0,0,0,0,0,0,0,0,0,0,0,0,0,0,0,0,0,0,0,0,0,0,0,0,0,0,0,0],"id":6,"left_children":[1,3,5,7,9,11,13,15,17,19,21,23,25,27,29,31,33,35,37,39,41,43,45,47,49,51,53,55,57,59,61,63,65,67,69,71,73,75,77,79,81,83,85,87,89,91,93,95,97,99,101,103,105,107,109,111,113,115,117,119,121,123,125,-1,-1,-1,-1,-1,-1,-1,-1,-1,-1,-1,-1,-1,-1,-1,-1,-1,-1,-1,-1,-1,-1,-1,-1,-1,-1,-1,-1,-1,-1,-1,-1,-1,-1,-1,-1,-1,-1,-1,-1,-1,-1,-1,-1,-1,-1,-1,-1,-1,-1,-1,-1,-1,-1,-1,-1,-1,-1,-1,-1,-1,-1,-1,-1],"loss_changes":[1.4812919E5,3.6813766E4,1.3073494E5,7.533336E4,4.9998836E4,4.3056812E4,9.4202E4,9.9961375E4,3.1921953E3,1.6910914E4,6.0447188E4,4.4472375E4,1.8147913E3,3.1790074E4,3.540414E4,6.1335953E4,1.7607727E4,1.8817012E3,7.02344E2,5.535415E3,1.1687719E4,2.3004875E4,2.5087738E4,1.0119117E4,2.6136812E4,1.9838453E3,1.7915479E2,8.684077E3,1.4320078E4,4.8969016E4,1.6697164E4,4.6120713E3,8.964094E3,1.6945719E4,2.886606E3,2.8096777E2,9.938701E2,9.71662E2,8.328712E2,4.5499844E3,4.5070874E2,1.3488838E4,1.2077689E4,9.84582E3,8.486297E3,6.8336294E3,2.568791E3,1.914935E3,7.147203E3,1.0231922E4,5.1912312E4,7.84374E2,6.993061E2,9.376807E1,5.8411957E1,1.6752095E3,5.8111484E3,8.566305E3,8.436922E3,3.6176438E4,1.1196984E4,1.5667854E4,1.2601367E4,0E0,0E0,0E0,0E0,0E0,0E0,0E0,0E0,0E0,0E0,0E0,0E0,0E0,0E0,0E0,0E0,0E0,0E0,0E0,0E0,0E0,0E0,0E0,0E0,0E0,0E0,0E0,0E0,0E0,0E0,0E0,0E0,0E0,0E0,0E0,0E0,0E0,0E0,0E0,0E0,0E0,0E0,0E0,0E0,0E0,0E0,0E0,0E0,0E0,0E0,0E0,0E0,0E0,0E0,0E0,0E0,0E0,0E0,0E0,0E0,0E0,0E0,0E0,0E0],"parents":[2147483647,0,0,1,1,2,2,3,3,4,4,5,5,6,6,7,7,8,8,9,9,10,10,11,11,12,12,13,13,14,14,15,15,16,16,17,17,18,18,19,19,20,20,21,21,22,22,23,23,24,24,25,25,26,26,27,27,28,28,29,29,30,30,31,31,32,32,33,33,34,34,35,35,36,36,37,37,38,38,39,39,40,40,41,41,42,42,43,43,44,44,45,45,46,46,47,47,48,48,49,49,50,50,51,51,52,52,53,53,54,54,55,55,56,56,57,57,58,58,59,59,60,60,61,61,62,62],"right_children":[2,4,6,8,10,12,14,16,18,20,22,24,26,28,30,32,34,36,38,40,42,44,46,48,50,52,54,56,58,60,62,64,66,68,70,72,74,76,78,80,82,84,86,88,90,92,94,96,98,100,102,104,106,108,110,112,114,116,118,120,122,124,126,-1,-1,-1,-1,-1,-1,-1,-1,-1,-1,-1,-1,-1,-1,-1,-1,-1,-1,-1,-1,-1,-1,-1,-1,-1,-1,-1,-1,-1,-1,-1,-1,-1,-1,-1,-1,-1,-1,-1,-1,-1,-1,-1,-1,-1,-1,-1,-1,-1,-1,-1,-1,-1,-1,-1,-1,-1,-1,-1,-1,-1,-1,-1,-1],"split_conditions":[5.5541237E1,4.5069035E1,5.584294E1,4.0343887E1,7.5085E3,4.956822E1,1.2025E1,4.3955524E1,5E-1,6.5E0,3.5E0,4.152E1,5.2477253E1,5.5E0,3.0427177E1,4.1405E1,3.9001762E1,4.3121544E1,1.05E1,1.04202835E2,5.6183098E1,7.4045E1,5.5030407E1,2.9915E1,5.566363E1,5.2288586E1,4.6365E3,3.5E0,2.0205E3,1.15E1,6.054932E1,3.005E1,5.6324997E1,8.196E1,3.906286E1,4.2641197E1,4.335756E1,4.7458733E1,4.500826E1,4.7369987E1,1.3587459E2,5.594708E1,1.0421731E2,5.498877E1,1.5105E2,9.5E0,5.5077457E1,9.965E0,2.0205E3,3.748063E1,3.7717888E1,1.2095E2,1.05E1,8.62347E1,9.6165E3,2.5E0,6.0467484E1,5.984822E1,4.409289E1,5.9861103E1,9.158E1,5.5964573E1,6.0644386E1,6.29537E-2,3.5573843E-1,7.4552566E-1,1.1028013E0,1.7610529E-1,4.8610985E-1,9.772947E-2,-3.231354E-4,-8.9987695E-2,6.233471E-2,-2.0622845E-1,-3.8841438E-1,-6.545615E-2,3.5895992E-2,-2.0710994E-1,-2.5807127E-2,-8.987096E-3,-8.4782526E-2,3.163798E-1,-7.903211E-2,3.9560456E-2,2.7940348E-1,-7.162372E-2,4.790734E-1,9.297353E-2,2.1622203E-1,3.5849097E-1,9.5233214E-1,1.1879597E-1,-5.915874E-4,2.7914327E-1,1.2144134E-1,7.3043305E-1,6.0102712E-2,2.2698434E-1,4.497362E-1,1.35152E-1,3.49271E-1,6.640738E-1,3.5306123E-1,-1.0382396E-1,-9.6668935E-1,8.446946E-2,-3.545383E-2,-2.073934E-1,-3.521904E-1,-9.8326914E-2,-2.6433098E-1,-1.5803047E-1,-5.334901E-2,2.864178E-4,1.0131059E-1,8.0447376E-2,1.689801E-1,3.3936167E-1,1.3042793E-1,1.1576429E-1,8.67999E-1,2.2692223E-1,6.070005E-1,3.1800446E-1,8.1468694E-2,4.990482E-1,2.3511666E-1],"split_indices":[0,0,0,1,2,1,8,0,9,5,3,7,1,5,1,7,1,1,5,1,1,7,0,7,0,1,2,5,10,5,1,7,7,7,1,1,0,1,0,0,1,1,1,0,7,5,0,7,10,1,1,7,5,1,2,5,1,0,1,0,7,0,1,0,0,0,0,0,0,0,0,0,0,0,0,0,0,0,0,0,0,0,0,0,0,0,0,0,0,0,0,0,0,0,0,0,0,0,0,0,0,0,0,0,0,0,0,0,0,0,0,0,0,0,0,0,0,0,0,0,0,0,0,0,0,0,0],"split_type":[0,0,0,0,0,0,0,0,0,0,0,0,0,0,0,0,0,0,0,0,0,0,0,0,0,0,0,0,0,0,0,0,0,0,0,0,0,0,0,0,0,0,0,0,0,0,0,0,0,0,0,0,0,0,0,0,0,0,0,0,0,0,0,0,0,0,0,0,0,0,0,0,0,0,0,0,0,0,0,0,0,0,0,0,0,0,0,0,0,0,0,0,0,0,0,0,0,0,0,0,0,0,0,0,0,0,0,0,0,0,0,0,0,0,0,0,0,0,0,0,0,0,0,0,0,0,0],"sum_hessian":[3.759458E6,2.054418E6,1.70504E6,4.00492E5,1.653926E6,4.97047E5,1.207993E6,3.06506E5,9.3986E4,8.63608E5,7.90318E5,4.61042E5,3.6005E4,8.84267E5,3.23726E5,4.5465E4,2.61041E5,1.9154E4,7.4832E4,3.39788E5,5.2382E5,2.96808E5,4.9351E5,1.66099E5,2.94943E5,3.3248E4,2.757E3,3.18916E5,5.65351E5,1.0439E5,2.19336E5,2.0015E4,2.545E4,1.5093E5,1.10111E5,4.569E3,1.4585E4,6.5231E4,9.601E3,3.35698E5,4.09E3,4.05519E5,1.18301E5,2.4287E5,5.3938E4,4.44635E5,4.8875E4,3.3885E4,1.32214E5,8.5386E4,2.09557E5,7.896E3,2.5352E4,1.71E3,1.047E3,5.5093E4,2.63823E5,4.94495E5,7.0856E4,3.4231E4,7.0159E4,1.38932E5,8.0404E4,8.21E3,1.1805E4,1.1771E4,1.3679E4,1.32909E5,1.8021E4,6.2522E4,4.7589E4,2.776E3,1.793E3,1.1015E4,3.57E3,5.5165E4,1.0066E4,5.873E3,3.728E3,1.02697E5,2.33001E5,3.812E3,2.78E2,3.83186E5,2.2333E4,1.14602E5,3.699E3,9.7388E4,1.45482E5,5.1678E4,2.26E3,4.8422E4,3.96213E5,3.6386E4,1.2489E4,3.87E2,3.3498E4,1.17644E5,1.457E4,3.2322E4,5.3064E4,7.5515E4,1.34042E5,7.801E3,9.5E1,1.9729E4,5.623E3,6.64E2,1.046E3,7.96E2,2.51E2,2.6661E4,2.8432E4,1.9421E5,6.9613E4,3.59012E5,1.35483E5,4.018E4,3.0676E4,7.319E3,2.6912E4,6.2304E4,7.855E3,3.3079E4,1.05853E5,2.2678E4,5.7726E4],"tree_param":{"num_deleted":"0","num_feature":"13","num_nodes":"127","size_leaf_vector":"0"}},{"base_weights":[2.768881E-1,2.1285446E-1,6.26032E-1,6.924273E-1,1.8007632E-1,5.3264034E-1,1.2661828E0,6.199376E-1,1.9203337E0,-2.138817E-1,2.0654611E-1,6.402573E-1,3.256185E-2,2.1548061E0,1.1273828E0,-8.293447E-2,7.299085E-1,-3.697911E-1,2.0278795E0,-3.5603443E-1,-9.032478E-2,9.258769E-2,3.0928424E-1,4.200291E-1,8.462912E-1,-6.9570935E-1,1.1587897E-1,1.8218466E0,6.1299005E0,7.6824486E-1,1.3460941E0,-5.9027827E-1,6.470965E-2,2.1433611E-1,8.8999486E-1,-5.0945735E-1,3.2589414E0,1.6978115E0,2.6944528E0,-8.438931E-2,-4.078019E-1,-5.1115364E-2,-4.569399E-1,1.5699092E-2,2.0859297E-1,2.7078703E-1,6.565533E-1,7.3175475E-2,5.7785654E-1,1.290088E0,6.850479E-1,-1.003423E0,-4.8539853E-1,1.4239489E-2,3.6575928E-1,8.251353E-1,2.0837755E0,6.685366E0,2.787011E0,1.1660422E0,5.6329286E-1,2.3142395E0,1.2400862E0,-8.0950755E-1,-1.09802596E-1,2.4015078E-1,-5.323728E-1,-3.0756107E-1,3.387996E-1,9.721773E-2,1.015156E0,-1.7751212E0,-1.8528426E-1,3.9172366E0,1.1797628E0,1.7790129E0,7.96543E-2,2.7634523E0,-1.6994046E0,-2.4162391E-1,1.2090099E-1,-3.548429E-1,-6.329283E-1,3.0838746E-1,-7.924301E-2,-8.4474E-1,-3.8293067E-1,-9.5240936E-2,7.94525E-2,-2.5916967E-1,2.4740072E-1,1.3810693E-1,3.365949E-1,1.5603416E0,5.522446E-1,-5.403305E-1,1.5386717E-1,3.6460003E-1,8.838054E-1,-1.7453118E-1,1.4198947E0,4.4721526E-1,1.0326519E0,-3.802182E-1,-1.3683349E0,-8.425213E-1,-1.4733253E-1,-2.519163E-1,9.452196E-2,2.23337E0,3.257359E-1,9.245748E-1,-5.3334224E-1,1.3037391E0,2.4719312E0,6.06215E0,7.9383254E0,2.3818455E0,5.2482915E0,5.887893E-1,1.4989858E0,-1.3226457E0,5.8853185E-1,3.712931E-1,2.4751136E0,1.1504347E0,1.9414499E0],"categories":[],"categories_nodes":[],"categories_segments":[],"categories_sizes":[],"default_left":[1,1,1,1,1,1,1,1,1,1,1,1,1,1,1,1,1,1,1,1,1,1,1,1,1,1,1,1,1,1,1,1,1,1,1,1,1,1,1,1,1,1,1,1,1,1,1,1,1,1,1,1,1,1,1,1,1,1,1,1,1,1,1,0,0,0,0,0,0,0,0,0,0,0,0,0,0,0,0,0,0,0,0,0,0,0,0,0,0,0,0,0,0,0,0,0,0,0,0,0,0,0,0,0,0,0,0,0,0,0,0,0,0,0,0,0,0,0,0,0,0,0,0,0,0,0,0],"id":7,"left_children":[1,3,5,7,9,11,13,15,17,19,21,23,25,27,29,31,33,35,37,39,41,43,45,47,49,51,53,55,57,59,61,63,65,67,69,71,73,75,77,79,81,83,85,87,89,91,93,95,97,99,101,103,105,107,109,111,113,115,117,119,121,123,125,-1,-1,-1,-1,-1,-1,-1,-1,-1,-1,-1,-1,-1,-1,-1,-1,-1,-1,-1,-1,-1,-1,-1,-1,-1,-1,-1,-1,-1,-1,-1,-1,-1,-1,-1,-1,-1,-1,-1,-1,-1,-1,-1,-1,-1,-1,-1,-1,-1,-1,-1,-1,-1,-1,-1,-1,-1,-1,-1,-1,-1,-1,-1,-1],"loss_changes":[8.404994E4,4.9938E4,3.4832047E4,1.808932E4,3.1008547E4,2.736361E4,9.14675E3,1.4833992E4,2.7910078E3,3.2882031E3,3.2622469E4,1.8985E4,5.463722E3,1.3250762E4,5.038492E3,1.944981E3,1.3696516E4,2.5962735E2,2.3761992E3,1.2241816E3,1.4397532E3,1.1783079E4,1.9589578E4,1.1071352E4,1.5468281E4,5.977427E2,2.0521548E3,2.412371E3,1.4185781E3,1.9793652E3,4.0894453E3,6.164331E2,2.1070215E3,2.5542192E3,1.2564641E4,2.0112555E2,2.138414E1,9.5116797E2,1.090668E3,4.4986572E2,8.715576E2,9.1499585E2,2.7741418E2,5.6191597E3,9.5589375E3,1.1517484E4,1.3784672E4,3.131165E3,9.068551E3,1.0952719E4,1.3108352E4,8.5274023E2,6.6305176E2,1.2273599E3,1.7456128E3,2.606693E2,2.2136992E3,4.6958984E2,9.91886E1,1.5860527E3,7.6379346E2,1.2287285E3,2.2576719E3,0E0,0E0,0E0,0E0,0E0,0E0,0E0,0E0,0E0,0E0,0E0,0E0,0E0,0E0,0E0,0E0,0E0,0E0,0E0,0E0,0E0,0E0,0E0,0E0,0E0,0E0,0E0,0E0,0E0,0E0,0E0,0E0,0E0,0E0,0E0,0E0,0E0,0E0,0E0,0E0,0E0,0E0,0E0,0E0,0E0,0E0,0E0,0E0,0E0,0E0,0E0,0E0,0E0,0E0,0E0,0E0,0E0,0E0,0E0,0E0,0E0,0E0,0E0,0E0],"parents":[2147483647,0,0,1,1,2,2,3,3,4,4,5,5,6,6,7,7,8,8,9,9,10,10,11,11,12,12,13,13,14,14,15,15,16,16,17,17,18,18,19,19,20,20,21,21,22,22,23,23,24,24,25,25,26,26,27,27,28,28,29,29,30,30,31,31,32,32,33,33,34,34,35,35,36,36,37,37,38,38,39,39,40,40,41,41,42,42,43,43,44,44,45,45,46,46,47,47,48,48,49,49,50,50,51,51,52,52,53,53,54,54,55,55,56,56,57,57,58,58,59,59,60,60,61,61,62,62],"right_children":[2,4,6,8,10,12,14,16,18,20,22,24,26,28,30,32,34,36,38,40,42,44,46,48,50,52,54,56,58,60,62,64,66,68,70,72,74,76,78,80,82,84,86,88,90,92,94,96,98,100,102,104,106,108,110,112,114,116,118,120,122,124,126,-1,-1,-1,-1,-1,-1,-1,-1,-1,-1,-1,-1,-1,-1,-1,-1,-1,-1,-1,-1,-1,-1,-1,-1,-1,-1,-1,-1,-1,-1,-1,-1,-1,-1,-1,-1,-1,-1,-1,-1,-1,-1,-1,-1,-1,-1,-1,-1,-1,-1,-1,-1,-1,-1,-1,-1,-1,-1,-1,-1,-1,-1,-1,-1],"split_conditions":[1.4055E1,3.6E1,2.0205E3,7.9415E1,3.5E0,3.5E0,3.0405287E1,2.0185E3,3.7304817E1,2.5E0,1.5E0,5.5572243E1,3.7301292E1,3.0400684E1,5.5855E1,3.7462303E1,3.4925003E1,1.1845E2,8.9149994E1,4.5110504E1,3.5E0,2.0195E3,2.0205E3,5E-1,5.58555E1,5.982281E1,5.567206E1,4.329E1,3.0401127E1,4.51E2,4.2E1,5.573017E1,3.773892E1,1.795E1,5.559529E1,5E-1,2.0195E3,3.7859135E1,1.76E2,4.5003628E1,5.955E1,4.4640335E1,3.7938755E1,5E-1,2.5025002E1,5.5E0,3.0691973E1,4.354821E1,1.5E0,3.7286236E1,5.985209E1,5.578573E1,3.0316002E1,2.0185E3,3.738057E1,3.5E0,5.984816E1,5.0985E1,8.83E1,5.56641E1,4.338565E1,1.465E1,1.18149994E2,-2.4285227E-1,-3.294078E-2,7.204524E-2,-1.5971184E-1,-9.2268325E-2,1.0163988E-1,2.916532E-2,3.0454683E-1,-5.325364E-1,-5.558528E-2,1.175171E0,3.5392886E-1,5.337039E-1,2.389629E-2,8.290357E-1,-5.098214E-1,-7.2487175E-2,3.6270298E-2,-1.06452875E-1,-1.8987851E-1,9.251624E-2,-2.3772905E-2,-2.53422E-1,-1.14879206E-1,-2.8572282E-2,2.383575E-2,-7.775091E-2,7.422022E-2,4.143208E-2,1.0097848E-1,4.6810248E-1,1.6567339E-1,-1.6209917E-1,4.6160154E-2,1.09380014E-1,2.6514164E-1,-5.2359354E-2,4.2596844E-1,1.3416459E-1,3.097956E-1,-1.1406547E-1,-4.105005E-1,-2.5275642E-1,-4.419976E-2,-7.557489E-2,2.835659E-2,6.7001104E-1,9.772077E-2,2.7737245E-1,-1.6000268E-1,3.9112175E-1,7.415794E-1,1.8186451E0,2.3814976E0,7.1455365E-1,1.5744876E0,1.7663679E-1,4.4969574E-1,-3.9679372E-1,1.7655957E-1,1.1138793E-1,7.425341E-1,3.4513044E-1,5.82435E-1],"split_indices":[8,2,10,7,5,3,1,10,1,5,6,0,1,1,7,1,7,7,7,0,3,10,10,9,0,0,0,7,1,2,2,0,1,7,0,9,10,1,7,0,7,0,1,9,7,5,1,0,3,1,0,0,1,10,1,3,0,7,7,0,0,8,7,0,0,0,0,0,0,0,0,0,0,0,0,0,0,0,0,0,0,0,0,0,0,0,0,0,0,0,0,0,0,0,0,0,0,0,0,0,0,0,0,0,0,0,0,0,0,0,0,0,0,0,0,0,0,0,0,0,0,0,0,0,0,0,0],"split_type":[0,0,0,0,0,0,0,0,0,0,0,0,0,0,0,0,0,0,0,0,0,0,0,0,0,0,0,0,0,0,0,0,0,0,0,0,0,0,0,0,0,0,0,0,0,0,0,0,0,0,0,0,0,0,0,0,0,0,0,0,0,0,0,0,0,0,0,0,0,0,0,0,0,0,0,0,0,0,0,0,0,0,0,0,0,0,0,0,0,0,0,0,0,0,0,0,0,0,0,0,0,0,0,0,0,0,0,0,0,0,0,0,0,0,0,0,0,0,0,0,0,0,0,0,0,0,0],"sum_hessian":[3.759458E6,3.176824E6,5.82634E5,2.03239E5,2.973585E6,5.08457E5,7.4177E4,1.91911E5,1.1328E4,1.87214E5,2.786371E6,4.18414E5,9.0043E4,1.0019E4,6.4158E4,2.5964E4,1.65947E5,5.08E2,1.082E4,8.7055E4,1.00159E5,1.321049E6,1.465322E6,2.02242E5,2.16172E5,9.243E3,8.08E4,9.246E3,7.73E2,2.4285E4,3.9873E4,5.852E3,2.0112E4,3.9319E4,1.26628E5,4.9E2,1.8E1,7.239E3,3.581E3,1.3935E4,7.312E4,9.0483E4,9.676E3,7.94472E5,5.26577E5,1.319093E6,1.46229E5,6.3247E4,1.38995E5,5.7608E4,1.58564E5,3.751E3,5.492E3,5.7438E4,2.3362E4,1.925E3,7.321E3,6.62E2,1.11E2,8.256E3,1.6029E4,3.933E3,3.594E4,4.018E3,1.834E3,1.5545E4,4.567E3,7.571E3,3.1748E4,1.7266E4,1.09362E5,9.9E1,3.91E2,1.3E1,5E0,6.893E3,3.46E2,3.526E3,5.5E1,7.891E3,6.044E3,5.9197E4,1.3923E4,6.565E3,8.3918E4,1.549E3,8.127E3,2.89938E5,5.04534E5,4.034E4,4.86237E5,4.37341E5,8.81752E5,1.5129E4,1.311E5,7.351E3,5.5896E4,8.1906E4,5.7089E4,4.69E3,5.2918E4,9.4149E4,6.4415E4,1.386E3,2.365E3,2.67E3,2.822E3,1.331E4,4.4128E4,4.89E2,2.2873E4,1.794E3,1.31E2,2.434E3,4.887E3,4.46E2,2.16E2,9.7E1,1.4E1,3.021E3,5.235E3,2.11E2,1.5818E4,3.01E2,3.632E3,3.1869E4,4.071E3],"tree_param":{"num_deleted":"0","num_feature":"13","num_nodes":"127","size_leaf_vector":"0"}},{"base_weights":[1.9382511E-1,7.322394E-2,3.0700567E-1,-1.9222131E-1,9.425116E-2,1.606503E-1,4.781249E-1,-1.5711132E-1,-4.2606762E-1,1.7484383E-1,3.0399699E-2,-1.0172934E-2,2.6163125E-1,2.9112586E-1,6.559956E-1,-3.280983E-2,-2.0195219E-1,-3.16539E-1,-6.2332666E-1,1.1695433E0,1.5609735E-1,-1.5991426E-1,1.1388697E-1,-5.5879127E-2,2.415038E-1,2.216608E-1,7.699976E-1,8.436548E-2,4.456409E-1,9.8534346E-1,5.044651E-1,3.176857E-2,-2.611215E-1,-1.7222267E-1,-4.9919063E-1,-5.774906E-1,-2.6365444E-1,-3.9856982E0,-6.053093E-1,6.158388E-1,1.9169583E0,-1.15446905E-2,2.4160604E-1,3.884423E-2,-3.5641924E-1,6.5641296E-1,6.7372434E-2,-6.745801E-2,7.1321493E-1,2.3336393E-1,5.68995E0,6.785056E-1,1.7728433E-1,3.5856905E0,7.126283E-1,4.6236134E-1,-2.3410557E-2,7.551788E-1,2.7145645E-1,8.8246304E-1,1.7152102E0,2.7981314E-1,8.740591E-1,-2.4135405E-1,1.0769162E-1,-4.645342E-1,-1.7585124E-1,-2.4676925E-1,-8.426336E-2,3.349218E-1,-5.532496E-1,-9.3113375E-1,-3.3808142E-1,-9.8225415E-2,-3.044623E-1,-2.0300608E0,-7.7124224E0,-9.8057497E-1,-5.562273E-1,4.2149457E-1,1.1050504E0,2.1928709E0,-6.86788E-1,-1.0089742E0,4.8173526E-3,4.0405285E-1,4.986069E-2,1.270727E0,2.4498401E-2,-5.258246E-1,-1.0299668E-1,7.6915866E-1,4.105245E-1,-3.9254645E-1,1.3501318E-1,-1.6846043E-1,2.2311905E-2,2.1400876E0,4.4834325E-1,1.105656E-1,5.1136047E-1,6.4128127E0,1.6963068E0,1.495086E0,-2.341376E-1,8.648229E-2,4.0780184E-1,-2.5521314E0,3.8425417E0,1.2840109E0,5.415671E-1,2.1466038E-1,1.7791383E0,2.0346503E-1,-2.0507072E-1,-1.1956766E0,8.09783E-1,-1.8351574E-1,3.8082218E-1,1.1497284E0,6.262772E-1,1.8731666E0,1.0333544E-1,-1.7193177E-1,5.1091707E-1,1.27011E0,3.4680676E-1],"categories":[],"categories_nodes":[],"categories_segments":[],"categories_sizes":[],"default_left":[1,1,1,1,1,1,1,1,1,1,1,1,1,1,1,1,1,1,1,1,1,1,1,1,1,1,1,1,1,1,1,1,1,1,1,1,1,1,1,1,1,1,1,1,1,1,1,1,1,1,1,1,1,1,1,1,1,1,1,1,1,1,1,0,0,0,0,0,0,0,0,0,0,0,0,0,0,0,0,0,0,0,0,0,0,0,0,0,0,0,0,0,0,0,0,0,0,0,0,0,0,0,0,0,0,0,0,0,0,0,0,0,0,0,0,0,0,0,0,0,0,0,0,0,0,0,0],"id":8,"left_children":[1,3,5,7,9,11,13,15,17,19,21,23,25,27,29,31,33,35,37,39,41,43,45,47,49,51,53,55,57,59,61,63,65,67,69,71,73,75,77,79,81,83,85,87,89,91,93,95,97,99,101,103,105,107,109,111,113,115,117,119,121,123,125,-1,-1,-1,-1,-1,-1,-1,-1,-1,-1,-1,-1,-1,-1,-1,-1,-1,-1,-1,-1,-1,-1,-1,-1,-1,-1,-1,-1,-1,-1,-1,-1,-1,-1,-1,-1,-1,-1,-1,-1,-1,-1,-1,-1,-1,-1,-1,-1,-1,-1,-1,-1,-1,-1,-1,-1,-1,-1,-1,-1,-1,-1,-1,-1],"loss_changes":[5.1315484E4,1.0158851E4,4.8570547E4,1.0967856E3,8.678511E3,1.8031975E4,2.9737672E4,6.474221E2,3.7658105E2,1.3901318E4,1.4950879E4,4.4674595E3,1.3349289E4,1.3924219E4,2.2867125E4,4.540499E2,7.5423706E2,1.5461816E2,3.7470483E2,5.7057695E3,1.0489027E4,1.1206258E4,1.6505129E4,2.9269995E3,2.6459058E3,1.2347955E4,7.733168E3,7.5941484E3,1.3448668E4,1.0840359E4,2.6056727E4,4.978217E2,1.1769125E2,5.0882056E2,3.5013867E2,1.5961823E2,6.2934875E1,2.2485126E2,1.1352222E2,7.528169E2,4.217115E3,4.0336199E3,1.5093195E4,2.52081E3,6.193965E3,1.4315176E3,1.8740361E4,2.9359185E3,1.8414893E3,2.0346069E3,2.46052E2,4.018852E4,1.1620273E4,1.5169473E3,4.586699E3,1.34892295E4,5.978293E3,9.569023E3,7.94245E3,8.66418E3,4.541215E3,2.037762E4,2.4773812E4,0E0,0E0,0E0,0E0,0E0,0E0,0E0,0E0,0E0,0E0,0E0,0E0,0E0,0E0,0E0,0E0,0E0,0E0,0E0,0E0,0E0,0E0,0E0,0E0,0E0,0E0,0E0,0E0,0E0,0E0,0E0,0E0,0E0,0E0,0E0,0E0,0E0,0E0,0E0,0E0,0E0,0E0,0E0,0E0,0E0,0E0,0E0,0E0,0E0,0E0,0E0,0E0,0E0,0E0,0E0,0E0,0E0,0E0,0E0,0E0,0E0,0E0,0E0,0E0],"parents":[2147483647,0,0,1,1,2,2,3,3,4,4,5,5,6,6,7,7,8,8,9,9,10,10,11,11,12,12,13,13,14,14,15,15,16,16,17,17,18,18,19,19,20,20,21,21,22,22,23,23,24,24,25,25,26,26,27,27,28,28,29,29,30,30,31,31,32,32,33,33,34,34,35,35,36,36,37,37,38,38,39,39,40,40,41,41,42,42,43,43,44,44,45,45,46,46,47,47,48,48,49,49,50,50,51,51,52,52,53,53,54,54,55,55,56,56,57,57,58,58,59,59,60,60,61,61,62,62],"right_children":[2,4,6,8,10,12,14,16,18,20,22,24,26,28,30,32,34,36,38,40,42,44,46,48,50,52,54,56,58,60,62,64,66,68,70,72,74,76,78,80,82,84,86,88,90,92,94,96,98,100,102,104,106,108,110,112,114,116,118,120,122,124,126,-1,-1,-1,-1,-1,-1,-1,-1,-1,-1,-1,-1,-1,-1,-1,-1,-1,-1,-1,-1,-1,-1,-1,-1,-1,-1,-1,-1,-1,-1,-1,-1,-1,-1,-1,-1,-1,-1,-1,-1,-1,-1,-1,-1,-1,-1,-1,-1,-1,-1,-1,-1,-1,-1,-1,-1,-1,-1,-1,-1,-1,-1,-1,-1],"split_conditions":[9.095E0,3.5E0,5.55705E1,3.5E0,2.9705E3,5E-1,2.0195E3,4.745308E1,4.915E1,4.3616333E1,6.0466785E1,2.05E1,2.05E1,5E-1,5.592639E1,3.9970055E1,6.405E1,3.7965218E1,4.2E1,4.0245003E1,5.5519146E1,5.334733E1,6.069262E1,2.7619999E1,3.45E1,4.460412E1,4.3614967E1,1.15E1,5.5924805E1,7.993E1,5.9842606E1,2.995E1,2.8925E3,5.5764603E1,3.0429071E1,2.6325E3,5.415E0,6.35E1,3.795493E1,3.415E1,4.0007576E1,3.6692757E1,5.5937874E1,3.5124634E1,5.7950745E1,5.6865753E1,6.5413025E1,8.280279E1,2.0522827E1,8.289958E1,3.7457718E1,4.0305344E1,6.877E3,1.5E0,3.8983185E1,5.990618E1,5.587973E1,3.7053886E1,2.6325E3,3.7723312E1,4.9219265E1,4.3786373E1,5.9990738E1,-7.240622E-2,3.2307487E-2,-1.3936026E-1,-5.2755374E-2,-7.403078E-2,-2.527901E-2,1.0047655E-1,-1.6597489E-1,-2.7934015E-1,-1.0142443E-1,-2.9467626E-2,-9.1338694E-2,-6.0901827E-1,-2.313727E0,-2.941725E-1,-1.6686821E-1,1.2644838E-1,3.3151513E-1,6.578613E-1,-2.0603642E-1,-3.0269226E-1,1.4452059E-3,1.2121586E-1,1.49582075E-2,3.8121814E-1,7.3495205E-3,-1.5774739E-1,-3.0899005E-2,2.3074761E-1,1.2315735E-1,-1.1776394E-1,4.0503956E-2,-5.053813E-2,6.693572E-3,6.420263E-1,1.3450298E-1,3.3169683E-2,1.5340814E-1,1.9238439E0,5.0889206E-1,4.4852582E-1,-7.024128E-2,2.5944687E-2,1.2234055E-1,-7.656395E-1,1.1527625E0,3.8520327E-1,1.6247013E-1,6.439812E-2,5.3374153E-1,6.103951E-2,-6.1521217E-2,-3.58703E-1,2.429349E-1,-5.5054724E-2,1.1424666E-1,3.4491855E-1,1.8788317E-1,5.6194997E-1,3.1000633E-2,-5.1579535E-2,1.5327513E-1,3.8103303E-1,1.0404203E-1],"split_indices":[8,5,0,3,2,9,10,0,7,0,1,5,5,9,0,1,7,1,2,7,0,0,1,8,5,0,0,5,0,7,0,7,2,0,1,2,8,7,1,7,1,1,0,1,0,0,1,1,1,1,1,1,2,3,1,0,0,1,2,1,1,1,0,0,0,0,0,0,0,0,0,0,0,0,0,0,0,0,0,0,0,0,0,0,0,0,0,0,0,0,0,0,0,0,0,0,0,0,0,0,0,0,0,0,0,0,0,0,0,0,0,0,0,0,0,0,0,0,0,0,0,0,0,0,0,0,0],"split_type":[0,0,0,0,0,0,0,0,0,0,0,0,0,0,0,0,0,0,0,0,0,0,0,0,0,0,0,0,0,0,0,0,0,0,0,0,0,0,0,0,0,0,0,0,0,0,0,0,0,0,0,0,0,0,0,0,0,0,0,0,0,0,0,0,0,0,0,0,0,0,0,0,0,0,0,0,0,0,0,0,0,0,0,0,0,0,0,0,0,0,0,0,0,0,0,0,0,0,0,0,0,0,0,0,0,0,0,0,0,0,0,0,0,0,0,0,0,0,0,0,0,0,0,0,0,0,0],"sum_hessian":[3.759458E6,1.820064E6,1.939394E6,1.33593E5,1.686471E6,1.045337E6,8.94057E5,1.16155E5,1.7438E4,7.45503E5,9.40968E5,3.88365E5,6.56972E5,4.35846E5,4.58211E5,3.0794E4,8.5361E4,1.1214E4,6.224E3,1.3789E4,7.31714E5,2.86919E5,6.54049E5,3.28676E5,5.9689E4,6.09084E5,4.7888E4,1.86409E5,2.49437E5,1.44386E5,3.13825E5,2.4005E4,6.789E3,7.7601E4,7.76E3,1.888E3,9.326E3,3.2E1,6.192E3,7.922E3,5.867E3,2.47157E5,4.84557E5,1.42642E5,1.44277E5,5.1647E4,6.02402E5,3.23802E5,4.874E3,5.9601E4,8.8E1,5.3925E4,5.55159E5,9.55E2,4.6933E4,4.1357E4,1.45052E5,8.9819E4,1.59618E5,1.2655E5,1.7836E4,1.95186E5,1.18639E5,5.221E3,1.8784E4,2.004E3,4.785E3,4.2002E4,3.5599E4,4.72E2,7.288E3,7.61E2,1.127E3,1.846E3,7.48E3,2.2E1,1E1,7.14E2,5.478E3,5.671E3,2.251E3,5.305E3,5.62E2,3.988E3,2.43169E5,2.62319E5,2.22238E5,1.641E3,1.41001E5,8.6472E4,5.7805E4,3.5409E4,1.6238E4,7.7236E4,5.25166E5,1.52368E5,1.71434E5,7.62E2,4.112E3,4.1341E4,1.826E4,7.4E1,1.4E1,2.846E4,2.5465E4,3.98277E5,1.56882E5,3.8E1,9.17E2,1.0812E4,3.6121E4,3.481E4,6.547E3,6.4499E4,8.0553E4,2.445E3,8.7374E4,3.0933E4,1.28685E5,6.1934E4,6.4616E4,1.6244E4,1.592E3,6.6059E4,1.29127E5,6.7748E4,5.0891E4],"tree_param":{"num_deleted":"0","num_feature":"13","num_nodes":"127","size_leaf_vector":"0"}},{"base_weights":[1.3567863E-1,6.79408E-2,2.9167277E-1,4.173136E-2,3.019478E-1,2.2586992E-1,6.488424E-1,-1.0578287E-1,7.3808245E-2,5.7314885E-1,1.5839823E-1,7.384018E-1,1.7538999E-1,4.2086554E-1,9.567869E-1,-2.4378558E-1,-6.493718E-2,1.1691839E-2,2.1661241E-1,2.1869597E-1,7.3599255E-1,-2.8133088E-1,1.9788633E-1,9.1975003E-1,-3.4647116E-1,-1.3225561E-1,2.1916975E-1,9.913416E-1,2.5829825E-1,1.4264736E0,7.9240465E-1,-4.3522388E-1,-1.9321406E-1,-2.1429077E-2,-1.5327625E-1,-1.0615877E-1,6.240447E-2,-2.7266039E-2,2.5685957E-1,2.069129E-1,3.2047598E0,4.645949E-1,8.714009E-1,-3.2388094E-1,3.1498092E-1,4.1432866E-1,1.105348E-1,3.219293E-1,1.2006825E0,-2.7391052E-1,-1.0558685E0,-5.169402E-1,-8.363451E-2,7.805097E-4,2.8782633E-1,2.1721437E0,8.387284E-1,2.8206462E-1,-1.638618E0,1.6563785E0,2.4233265E-1,2.7072299E0,7.558464E-1,-6.9547296E-1,-3.6581966E-1,-1.1894376E-1,-3.0221337E-1,-2.4923442E-1,-2.4978055E-3,-1.3451898E-1,-3.826029E-1,-1.9574271E-1,-3.5421625E-2,-2.3390817E-2,1.2784594E-1,-3.385072E-2,1.4743333E0,4.5412257E-1,1.8680863E-1,1.779852E-1,1.2556769E0,2.5614417E0,3.367574E0,5.442319E-1,3.8161363E-2,1.0182378E0,6.0686463E-1,-2.2263198E-1,-4.8725054E-1,-6.201032E-1,4.2229378E-1,2.1954283E-1,7.6497996E-1,-1.2473879E-1,3.1137085E-1,6.0427034E-1,1.4346734E-2,1.422933E0,7.992908E-1,1.4387926E-1,-3.608642E-1,-8.8049453E-1,-2.2785556E0,-4.5085917E0,-5.0183E-1,-5.9075665E-1,-5.4836832E-2,-6.257079E-2,2.694255E-1,3.9709967E-2,3.8223332E-1,-2.4739538E-1,2.3842378E0,6.066898E-1,1.8628407E0,2.0256533E-1,8.095436E-1,-1.9774011E0,3.4193775E-1,6.596855E-1,1.874811E0,1.0430815E-1,7.9304066E0,-2.0507793E0,2.893724E0,1.5425491E-1,8.6401314E-1],"categories":[],"categories_nodes":[],"categories_segments":[],"categories_sizes":[],"default_left":[1,1,1,1,1,1,1,1,1,1,1,1,1,1,1,1,1,1,1,1,1,1,1,1,1,1,1,1,1,1,1,1,1,1,1,1,1,1,1,1,1,1,1,1,1,1,1,1,1,1,1,1,1,1,1,1,1,1,1,1,1,1,1,0,0,0,0,0,0,0,0,0,0,0,0,0,0,0,0,0,0,0,0,0,0,0,0,0,0,0,0,0,0,0,0,0,0,0,0,0,0,0,0,0,0,0,0,0,0,0,0,0,0,0,0,0,0,0,0,0,0,0,0,0,0,0,0],"id":9,"left_children":[1,3,5,7,9,11,13,15,17,19,21,23,25,27,29,31,33,35,37,39,41,43,45,47,49,51,53,55,57,59,61,63,65,67,69,71,73,75,77,79,81,83,85,87,89,91,93,95,97,99,101,103,105,107,109,111,113,115,117,119,121,123,125,-1,-1,-1,-1,-1,-1,-1,-1,-1,-1,-1,-1,-1,-1,-1,-1,-1,-1,-1,-1,-1,-1,-1,-1,-1,-1,-1,-1,-1,-1,-1,-1,-1,-1,-1,-1,-1,-1,-1,-1,-1,-1,-1,-1,-1,-1,-1,-1,-1,-1,-1,-1,-1,-1,-1,-1,-1,-1,-1,-1,-1,-1,-1,-1],"loss_changes":[3.972507E4,1.60765205E4,2.675132E4,1.1153895E4,1.0278221E4,2.4867324E4,1.2431086E4,2.3732236E3,1.717499E4,5.2742207E3,2.9977534E3,1.6954766E4,1.1784766E4,9.436207E3,5.8146484E3,9.3081445E2,1.2486311E3,8.0640513E3,5.760752E3,1.01150366E3,2.3005547E3,3.610598E2,2.9950015E3,1.24E4,6.350586E2,2.0387257E3,1.1484895E4,4.0645254E3,3.570433E3,5.315625E3,3.9041055E3,3.626548E2,6.1572534E2,9.3872845E2,4.6109106E2,2.5723804E3,5.296525E3,8.220808E2,6.961258E3,8.691211E2,3.2098389E0,7.078052E2,1.6218828E3,2.1953955E2,9.53904E1,3.110915E3,5.3330703E3,2.0500112E3,4.4798594E3,4.0689307E2,2.4351318E2,7.354458E2,1.4132349E3,3.118053E3,1.3650625E4,1.3255947E3,4.7477383E3,3.2794268E3,6.5823535E2,3.5587578E3,3.3693616E3,9.3320557E2,3.562957E3,0E0,0E0,0E0,0E0,0E0,0E0,0E0,0E0,0E0,0E0,0E0,0E0,0E0,0E0,0E0,0E0,0E0,0E0,0E0,0E0,0E0,0E0,0E0,0E0,0E0,0E0,0E0,0E0,0E0,0E0,0E0,0E0,0E0,0E0,0E0,0E0,0E0,0E0,0E0,0E0,0E0,0E0,0E0,0E0,0E0,0E0,0E0,0E0,0E0,0E0,0E0,0E0,0E0,0E0,0E0,0E0,0E0,0E0,0E0,0E0,0E0,0E0,0E0,0E0],"parents":[2147483647,0,0,1,1,2,2,3,3,4,4,5,5,6,6,7,7,8,8,9,9,10,10,11,11,12,12,13,13,14,14,15,15,16,16,17,17,18,18,19,19,20,20,21,21,22,22,23,23,24,24,25,25,26,26,27,27,28,28,29,29,30,30,31,31,32,32,33,33,34,34,35,35,36,36,37,37,38,38,39,39,40,40,41,41,42,42,43,43,44,44,45,45,46,46,47,47,48,48,49,49,50,50,51,51,52,52,53,53,54,54,55,55,56,56,57,57,58,58,59,59,60,60,61,61,62,62],"right_children":[2,4,6,8,10,12,14,16,18,20,22,24,26,28,30,32,34,36,38,40,42,44,46,48,50,52,54,56,58,60,62,64,66,68,70,72,74,76,78,80,82,84,86,88,90,92,94,96,98,100,102,104,106,108,110,112,114,116,118,120,122,124,126,-1,-1,-1,-1,-1,-1,-1,-1,-1,-1,-1,-1,-1,-1,-1,-1,-1,-1,-1,-1,-1,-1,-1,-1,-1,-1,-1,-1,-1,-1,-1,-1,-1,-1,-1,-1,-1,-1,-1,-1,-1,-1,-1,-1,-1,-1,-1,-1,-1,-1,-1,-1,-1,-1,-1,-1,-1,-1,-1,-1,-1,-1,-1,-1],"split_conditions":[5.9415E1,2.0205E3,1.85E1,2.0185E3,3.8634987E1,3.0447063E1,5E-1,3.8058594E1,8.5E0,3.589E1,2.663E3,3.5E0,1.5E0,3.6E1,5.455E2,3.4995003E1,8.295408E1,5E-1,3.1005001E1,3.863129E1,2.5E0,9.139786E1,2.9705E3,3.02113E1,3.5E0,2.5E0,5E-1,2.05E1,6.005613E1,3.788634E1,4.36186E1,2.5029999E1,2.5E0,2.9395E1,1.75E1,4.8907642E1,6.5E0,2.5E0,3.7768204E1,2.85E1,0E0,2.8615E3,2.5E0,3.9920586E1,5.3677277E1,5.5745975E1,6.5413025E1,2.0545547E1,3.0346016E1,2.5E0,1.405E1,4.2E1,3.724156E1,1.782E1,6.5E0,3.742756E1,8.525E1,2.0205E3,3.0427044E1,3.735128E1,5.6137848E1,1.5E0,2.0185E3,-2.086419E-1,-1.09745905E-1,-3.568313E-2,-9.0664014E-2,-7.477033E-2,-7.493417E-4,-4.0355697E-2,-1.1478087E-1,-5.8722816E-2,-1.0626487E-2,-7.017245E-3,3.8353786E-2,-1.0155216E-2,4.423E-1,1.3623677E-1,5.6042593E-2,5.3395566E-2,3.7670308E-1,7.6843256E-1,1.0102723E0,1.6326958E-1,1.1448409E-2,3.0547136E-1,1.8205939E-1,-6.67896E-2,-1.4617516E-1,-1.8603095E-1,1.2668814E-1,6.586285E-2,2.2949399E-1,-3.742164E-2,9.341126E-2,1.812811E-1,4.30402E-3,4.268799E-1,2.3978724E-1,4.316378E-2,-1.0825926E-1,-2.6414838E-1,-6.835667E-1,-1.3525776E0,-1.50549E-1,-1.77227E-1,-1.645105E-2,-1.8771237E-2,8.082765E-2,1.191299E-2,1.1467E-1,-7.4218616E-2,7.1527135E-1,1.8200696E-1,5.588522E-1,6.07696E-2,2.4286309E-1,-5.9322035E-1,1.0258133E-1,1.9790566E-1,5.624433E-1,3.1292446E-2,2.379122E0,-6.1523384E-1,8.681172E-1,4.6276476E-2,2.5920394E-1],"split_indices":[7,10,5,10,1,1,9,1,11,7,2,3,4,2,2,7,1,9,7,1,11,1,2,1,6,5,9,5,0,1,0,7,3,7,5,1,5,6,1,5,6,2,3,1,0,0,1,1,1,6,8,2,1,8,5,1,7,10,1,1,0,3,10,0,0,0,0,0,0,0,0,0,0,0,0,0,0,0,0,0,0,0,0,0,0,0,0,0,0,0,0,0,0,0,0,0,0,0,0,0,0,0,0,0,0,0,0,0,0,0,0,0,0,0,0,0,0,0,0,0,0,0,0,0,0,0,0],"split_type":[0,0,0,0,0,0,0,0,0,0,0,0,0,0,0,0,0,0,0,0,0,0,0,0,0,0,0,0,0,0,0,0,0,0,0,0,0,0,0,0,0,0,0,0,0,0,0,0,0,0,0,0,0,0,0,0,0,0,0,0,0,0,0,0,0,0,0,0,0,0,0,0,0,0,0,0,0,0,0,0,0,0,0,0,0,0,0,0,0,0,0,0,0,0,0,0,0,0,0,0,0,0,0,0,0,0,0,0,0,0,0,0,0,0,0,0,0,0,0,0,0,0,0,0,0,0,0],"sum_hessian":[3.759458E6,2.621233E6,1.138225E6,2.357219E6,2.64014E5,9.6115E5,1.77075E5,4.21024E5,1.936195E6,9.1377E4,1.72637E5,8.6176E4,8.74974E5,1.0175E5,7.5325E4,9.6153E4,3.24871E5,1.349288E6,5.86907E5,2.8766E4,6.2611E4,1.4225E4,1.58412E5,7.3834E4,1.2342E4,1.09002E5,7.65972E5,2.2564E4,7.9186E4,1.9526E4,5.5799E4,2.0091E4,7.6062E4,2.17668E5,1.07203E5,4.05936E5,9.43352E5,8.3137E4,5.0377E5,2.8654E4,1.12E2,2.0842E4,4.1769E4,1.3278E4,9.47E2,4.5548E4,1.12864E5,2.3605E4,5.0229E4,1.1198E4,1.144E3,1.223E4,9.6772E4,1.83208E5,5.82764E5,2.581E3,1.9983E4,7.8207E4,9.79E2,1.6351E4,3.175E3,1.044E3,5.4755E4,4.228E3,1.5863E4,4.5239E4,3.0823E4,1.67E4,2.00968E5,9.9099E4,8.104E3,1.79107E5,2.26829E5,4.08197E5,5.35155E5,8.2775E4,3.62E2,1.32014E5,3.71756E5,2.7886E4,7.68E2,2.6E1,8.6E1,1.7562E4,3.28E3,2.6858E4,1.4911E4,8.199E3,5.079E3,9.7E1,8.5E2,2.9283E4,1.6265E4,5.1976E4,6.0888E4,1.2307E4,1.1298E4,3.2327E4,1.7902E4,1.929E3,9.269E3,1.002E3,1.42E2,4.5E1,1.2185E4,5.199E3,9.1573E4,1.48249E5,3.4959E4,1.60623E5,4.22141E5,2.08E2,2.373E3,1.6293E4,3.69E3,6.7965E4,1.0242E4,8.36E2,1.43E2,2.94E3,1.3411E4,3.12E3,5.5E1,3.9E1,1.005E3,8.345E3,4.641E4],"tree_param":{"num_deleted":"0","num_feature":"13","num_nodes":"127","size_leaf_vector":"0"}},{"base_weights":[9.497667E-2,7.504889E-2,4.3923396E-1,5.128064E-2,2.8839368E-1,5.328416E-1,-4.3021053E-2,-1.07770406E-1,7.4912265E-2,5.6519294E-1,1.980531E-1,1.013444E0,4.460079E-1,-4.3704283E-1,8.311054E-2,-2.8859288E-1,-6.594141E-2,-1.3932177E-2,1.254963E-1,3.4835097E-1,9.560478E-1,1.374723E-1,5.3121626E-1,1.4191744E0,6.456903E-1,3.8875777E-1,1.1211691E0,-1.797323E-1,-9.6319133E-1,-1.11986E0,1.0658759E-1,-2.1090372E-1,-4.040189E-1,-5.105667E-2,-2.6126692E-1,1.2155868E-1,-7.1042694E-2,1.9384319E-1,3.905567E-2,7.2847563E-1,-1.4739901E-1,5.087203E-1,1.2626435E0,1.6568702E-1,-2.6115653E-1,8.272833E-1,3.345561E-1,5.601272E-1,1.9465892E0,5.0222605E-1,1.7560875E0,-3.5149813E-1,4.2328638E-1,-3.6050522E-1,1.2155865E0,-1.1667973E0,-4.4570707E-2,-3.6118572E0,-7.5592476E-1,-1.3704532E0,-5.9255356E-1,-3.90335E-1,1.5596075E-1,-1.5344994E-1,-4.9494728E-1,2.585956E-2,-4.433453E-1,-2.9684186E-1,-4.14908E-2,-2.9316616E-1,7.7893555E-1,2.345255E-1,-2.7349877E-1,-4.199321E-2,-2.4287017E-1,8.562015E-2,3.8264003E-1,-2.828406E-1,1.05052345E-1,8.628237E-1,6.534473E-2,-4.048435E-1,3.5043937E-1,3.3092478E-1,1.242782E0,1.6921742E0,5.10889E-1,-1.4042116E0,1.7079195E-1,-1.37964E-1,-6.4521736E-1,2.86206E0,7.3650426E-1,6.1658057E-3,9.9264693E-1,1.3086304E-1,1.2821735E0,9.015681E-1,2.3494067E0,-4.0137735E-1,6.3191605E-1,4.669697E-1,1.9953936E0,4.7080326E-1,-4.940045E-1,3.6393106E-1,7.971992E-1,8.8485783E-1,-2.128263E0,8.842134E-1,1.8426857E0,-1.1900457E0,2.920218E0,-3.189917E-1,6.138767E-1,-5.2492824E0,-1.5564966E0,-2.196766E0,-6.518764E-1,-2.8196878E0,-1.1477695E0,1.298175E0,-6.888004E-1,-3.433166E-1,-2.5362334E0,3.398102E-1,-1.0897704E-2],"categories":[],"categories_nodes":[],"categories_segments":[],"categories_sizes":[],"default_left":[1,1,1,1,1,1,1,1,1,1,1,1,1,1,1,1,1,1,1,1,1,1,1,1,1,1,1,1,1,1,1,1,1,1,1,1,1,1,1,1,1,1,1,1,1,1,1,1,1,1,1,1,1,1,1,1,1,1,1,1,1,1,1,0,0,0,0,0,0,0,0,0,0,0,0,0,0,0,0,0,0,0,0,0,0,0,0,0,0,0,0,0,0,0,0,0,0,0,0,0,0,0,0,0,0,0,0,0,0,0,0,0,0,0,0,0,0,0,0,0,0,0,0,0,0,0,0],"id":10,"left_children":[1,3,5,7,9,11,13,15,17,19,21,23,25,27,29,31,33,35,37,39,41,43,45,47,49,51,53,55,57,59,61,63,65,67,69,71,73,75,77,79,81,83,85,87,89,91,93,95,97,99,101,103,105,107,109,111,113,115,117,119,121,123,125,-1,-1,-1,-1,-1,-1,-1,-1,-1,-1,-1,-1,-1,-1,-1,-1,-1,-1,-1,-1,-1,-1,-1,-1,-1,-1,-1,-1,-1,-1,-1,-1,-1,-1,-1,-1,-1,-1,-1,-1,-1,-1,-1,-1,-1,-1,-1,-1,-1,-1,-1,-1,-1,-1,-1,-1,-1,-1,-1,-1,-1,-1,-1,-1],"loss_changes":[2.5790926E4,1.802044E4,9.28648E3,1.2018317E4,8.907799E3,7.1889688E3,1.6619573E3,3.1285073E3,1.2511124E4,7.42875E3,5.420634E3,3.9325293E3,5.639549E3,1.0976521E3,7.1555066E2,6.967407E2,9.7663635E2,7.815225E3,1.0480152E4,1.0624551E4,4.288957E3,2.556003E3,2.4056797E3,5.677289E3,2.2022695E3,3.4381992E3,1.5959502E3,7.266501E2,1.4592031E3,6.3275574E1,6.0969763E2,7.579263E2,5.2848E2,7.338682E2,7.894873E2,1.3365506E4,3.5464656E3,2.0240773E4,1.6640012E4,2.8429043E3,3.1362295E3,1.6598433E3,5.9912188E3,1.7011182E3,7.106532E2,3.0442139E3,5.366238E3,1.4779768E3,3.266582E3,1.4356941E3,4.8710547E2,7.027458E2,2.8519375E3,1.5077094E3,2.2264434E3,6.5806274E1,8.660708E2,6.413706E2,3.6901318E2,1.0261615E2,2.9646492E1,2.2574326E2,6.9339215E2,0E0,0E0,0E0,0E0,0E0,0E0,0E0,0E0,0E0,0E0,0E0,0E0,0E0,0E0,0E0,0E0,0E0,0E0,0E0,0E0,0E0,0E0,0E0,0E0,0E0,0E0,0E0,0E0,0E0,0E0,0E0,0E0,0E0,0E0,0E0,0E0,0E0,0E0,0E0,0E0,0E0,0E0,0E0,0E0,0E0,0E0,0E0,0E0,0E0,0E0,0E0,0E0,0E0,0E0,0E0,0E0,0E0,0E0,0E0,0E0,0E0,0E0,0E0,0E0],"parents":[2147483647,0,0,1,1,2,2,3,3,4,4,5,5,6,6,7,7,8,8,9,9,10,10,11,11,12,12,13,13,14,14,15,15,16,16,17,17,18,18,19,19,20,20,21,21,22,22,23,23,24,24,25,25,26,26,27,27,28,28,29,29,30,30,31,31,32,32,33,33,34,34,35,35,36,36,37,37,38,38,39,39,40,40,41,41,42,42,43,43,44,44,45,45,46,46,47,47,48,48,49,49,50,50,51,51,52,52,53,53,54,54,55,55,56,56,57,57,58,58,59,59,60,60,61,61,62,62],"right_children":[2,4,6,8,10,12,14,16,18,20,22,24,26,28,30,32,34,36,38,40,42,44,46,48,50,52,54,56,58,60,62,64,66,68,70,72,74,76,78,80,82,84,86,88,90,92,94,96,98,100,102,104,106,108,110,112,114,116,118,120,122,124,126,-1,-1,-1,-1,-1,-1,-1,-1,-1,-1,-1,-1,-1,-1,-1,-1,-1,-1,-1,-1,-1,-1,-1,-1,-1,-1,-1,-1,-1,-1,-1,-1,-1,-1,-1,-1,-1,-1,-1,-1,-1,-1,-1,-1,-1,-1,-1,-1,-1,-1,-1,-1,-1,-1,-1,-1,-1,-1,-1,-1,-1,-1,-1,-1],"split_conditions":[1.9035E1,2.0205E3,3.5E0,1.5E0,3.7696342E1,3.0447868E1,4.2E1,3.7964256E1,5.495214E1,3.728143E1,6.868E1,1.15E1,1.34545E2,3.7609116E1,3.5E0,3.5E0,5.7187904E1,4.5069134E1,5.5937893E1,3.0432434E1,5.5626587E1,5.718859E1,2.9705E3,6.5E0,1.0855E2,3.5E0,2.5E0,3.730272E1,1.05E1,2.5E0,3.724347E1,1.2365E1,5.0676094E1,1.5E0,1.2962566E2,4.0289616E1,5.4943966E1,5.56637E1,2.6325E3,3.5E0,3.163E3,6.185E1,5.5844093E1,3.7701824E1,5.6359333E1,4.3910767E1,8.289903E1,1.5E0,3.0242085E1,2.0185E3,5.9851242E1,4.4632065E1,2.0205E3,2.3465E2,1.7205E2,3.5E0,5.5622963E1,5E-1,3.7623E1,3.7861584E1,4.356807E1,4.6800003E1,2.878E3,-4.6034984E-2,-1.4848419E-1,7.7578686E-3,-1.3300359E-1,-8.905256E-2,-1.2447241E-2,-8.794985E-2,2.3368068E-1,7.035765E-2,-8.204964E-2,-1.2597963E-2,-7.286105E-2,2.5686046E-2,1.1479201E-1,-8.485219E-2,3.1515706E-2,2.5884712E-1,1.960342E-2,-1.21453054E-1,1.0513181E-1,9.927744E-2,3.7283462E-1,5.076523E-1,1.532667E-1,-4.2126352E-1,5.1237587E-2,-4.13892E-2,-1.9356522E-1,8.586181E-1,2.2095129E-1,1.8497418E-3,2.977941E-1,3.9258912E-2,3.8465208E-1,2.7047044E-1,7.0482206E-1,-1.2041321E-1,1.8957482E-1,1.4009091E-1,5.986181E-1,1.4124098E-1,-1.4820135E-1,1.09179325E-1,2.3915976E-1,2.6545736E-1,-6.3847893E-1,2.6526403E-1,5.528057E-1,-3.5701373E-1,8.7606543E-1,-9.5697515E-2,1.8416302E-1,-1.5747848E0,-4.6694902E-1,-6.590298E-1,-1.9556293E-1,-8.459064E-1,-3.4433085E-1,3.8945252E-1,-2.0664012E-1,-1.02994986E-1,-7.6087004E-1,1.0194306E-1,-3.2693115E-3],"split_indices":[8,10,3,4,1,1,2,1,0,1,7,5,7,1,5,3,0,0,0,1,0,0,2,5,7,5,6,1,5,5,1,8,0,5,1,1,0,0,2,3,2,7,0,1,1,0,1,3,1,10,0,0,10,7,7,6,0,9,1,1,0,8,2,0,0,0,0,0,0,0,0,0,0,0,0,0,0,0,0,0,0,0,0,0,0,0,0,0,0,0,0,0,0,0,0,0,0,0,0,0,0,0,0,0,0,0,0,0,0,0,0,0,0,0,0,0,0,0,0,0,0,0,0,0,0,0,0],"split_type":[0,0,0,0,0,0,0,0,0,0,0,0,0,0,0,0,0,0,0,0,0,0,0,0,0,0,0,0,0,0,0,0,0,0,0,0,0,0,0,0,0,0,0,0,0,0,0,0,0,0,0,0,0,0,0,0,0,0,0,0,0,0,0,0,0,0,0,0,0,0,0,0,0,0,0,0,0,0,0,0,0,0,0,0,0,0,0,0,0,0,0,0,0,0,0,0,0,0,0,0,0,0,0,0,0,0,0,0,0,0,0,0,0,0,0,0,0,0,0,0,0,0,0,0,0,0,0],"sum_hessian":[3.759458E6,3.553746E6,2.05712E5,3.197519E6,3.56227E5,1.72273E5,3.3439E4,4.13627E5,2.783892E6,8.7654E4,2.68573E5,2.6361E4,1.45912E5,8.108E3,2.5331E4,7.7706E4,3.35921E5,1.009984E6,1.773908E6,5.6378E4,3.1276E4,2.27252E5,4.1321E4,1.2532E4,1.3829E4,1.34508E5,1.1404E4,5.446E3,2.662E3,4.84E2,2.4847E4,4.6447E4,3.1259E4,3.12136E5,2.3785E4,2.99482E5,7.10502E5,9.90633E5,7.83275E5,3.191E4,2.4468E4,1.272E4,1.8556E4,2.12231E5,1.5021E4,1.6491E4,2.483E4,4.768E3,7.764E3,1.2248E4,1.581E3,5.994E3,1.28514E5,6.83E2,1.0721E4,6.55E2,4.791E3,1.92E2,2.47E3,3.27E2,1.57E2,2.245E3,2.2602E4,3.8634E4,7.813E3,2.62E3,2.8639E4,1.1692E4,3.00444E5,2.3078E4,7.07E2,2.32888E5,6.6594E4,6.07755E5,1.02747E5,6.29684E5,3.60949E5,1.33267E5,6.50008E5,2.6534E4,5.376E3,1.6128E4,8.34E3,1.0241E4,2.479E3,1.1808E4,6.748E3,6.87E2,2.11544E5,1.1374E4,3.647E3,7.03E2,1.5788E4,1.6565E4,8.265E3,2.991E3,1.777E3,2.161E3,5.603E3,1.537E3,1.0711E4,2.48E2,1.333E3,8.85E2,5.109E3,1.1091E5,1.7604E4,4.01E2,2.82E2,7.016E3,3.705E3,6.52E2,3E0,3.382E3,1.409E3,1.06E2,8.6E1,1.65E2,2.305E3,4.2E1,2.85E2,7E0,1.5E2,2.198E3,4.7E1,1.0753E4,1.1849E4],"tree_param":{"num_deleted":"0","num_feature":"13","num_nodes":"127","size_leaf_vector":"0"}},{"base_weights":[6.648391E-2,-6.606927E-2,1.0200551E-1,-1.9403948E-1,-3.1058487E-2,1.6312931E-1,-4.0548826E-3,-2.1079503E-1,1.4865535E0,-7.5082146E-2,1.8857839E-2,2.9903749E-2,2.3215951E-1,-2.3976079E-1,1.8232007E-2,5.4368854E-1,-2.2613598E-1,3.0684783E0,1.0725085E0,-4.9989786E-2,-3.3590108E-1,5.231545E-1,-1.5966013E-2,3.5542783E-1,-2.0632366E-2,1.2537959E-1,3.4514737E-1,-6.9176084E-1,-1.2931475E-1,-3.1511277E-2,1.14334926E-1,2.0856227E-1,1.8047386E0,-4.7765166E-1,-1.7120835E-1,3.7994926E0,-3.7669268E-1,4.1024172E-1,1.7781557E0,-1.760846E-1,-8.464765E-3,-2.3181605E-1,-5.0511813E-1,6.17118E-1,2.0159425E-1,-1.0924585E-1,4.418708E-2,1.1079769E0,-2.86113E-1,-3.2578763E-1,1.2987557E-2,1.077113E-1,7.2546595E-1,2.7810434E-1,6.498172E-1,-1.266621E0,-5.680288E-1,-4.4761475E-2,-4.9063155E-1,-4.1639116E-3,-2.6480475E-1,-3.1774882E-2,2.6999536E-1,-2.138938E-1,4.190786E-1,1.6124094E0,6.588869E0,-1.1330353E0,-4.297858E-1,-3.8778552E-1,-1.1474924E-1,1.8792511E0,5.065091E0,8.213434E0,-7.999208E-1,2.0068768E-1,7.884973E-1,2.272734E0,1.2430142E-1,3.5105246E-1,-1.9020669E-1,-6.7732476E-2,1.2773758E-1,-2.7742425E-1,-5.8540337E-2,-9.3617964E-1,-4.204523E-1,4.574917E-1,7.3123837E-1,1.2980938E-1,4.5941702E-1,-4.6140525E-2,-2.62237E-1,-5.2445185E-1,5.9413347E-2,1.7091004E0,6.4383036E-1,1.7265521E-1,-4.3820992E-1,-2.0282671E0,-2.7941892E-1,1.7784435E-1,-5.6538243E-2,2.0627247E-1,1.7780162E-2,2.6490587E-1,9.6379954E-1,1.9314964E-1,4.760123E-1,9.5280236E-1,4.4787914E-1,-9.247975E-1,-1.7540687E0,-1.4578226E-1,-8.056719E-1,8.871041E-3,-3.899569E-1,-7.1487373E-1,-3.0841342E-1,-3.3021968E-2,3.4955436E-1,-1.0668891E-1,-3.3428878E-1,-4.114092E-1,8.565382E-3,-1.3170583E-2,3.8097474E-1],"categories":[],"categories_nodes":[],"categories_segments":[],"categories_sizes":[],"default_left":[1,1,1,1,1,1,1,1,1,1,1,1,1,1,1,1,1,1,1,1,1,1,1,1,1,1,1,1,1,1,1,1,1,1,1,1,1,1,1,1,1,1,1,1,1,1,1,1,1,1,1,1,1,1,1,1,1,1,1,1,1,1,1,0,0,0,0,0,0,0,0,0,0,0,0,0,0,0,0,0,0,0,0,0,0,0,0,0,0,0,0,0,0,0,0,0,0,0,0,0,0,0,0,0,0,0,0,0,0,0,0,0,0,0,0,0,0,0,0,0,0,0,0,0,0,0,0],"id":11,"left_children":[1,3,5,7,9,11,13,15,17,19,21,23,25,27,29,31,33,35,37,39,41,43,45,47,49,51,53,55,57,59,61,63,65,67,69,71,73,75,77,79,81,83,85,87,89,91,93,95,97,99,101,103,105,107,109,111,113,115,117,119,121,123,125,-1,-1,-1,-1,-1,-1,-1,-1,-1,-1,-1,-1,-1,-1,-1,-1,-1,-1,-1,-1,-1,-1,-1,-1,-1,-1,-1,-1,-1,-1,-1,-1,-1,-1,-1,-1,-1,-1,-1,-1,-1,-1,-1,-1,-1,-1,-1,-1,-1,-1,-1,-1,-1,-1,-1,-1,-1,-1,-1,-1,-1,-1,-1,-1],"loss_changes":[1.7701428E4,3.559801E3,1.9221027E4,4.8065093E3,1.3709376E3,1.7298066E4,5.6944097E3,1.9561538E3,1.100364E3,2.1694927E3,5.1343916E3,1.0560762E4,1.4947805E4,4.674671E3,4.7343804E3,1.4229775E3,2.2880947E3,8.803777E2,6.240862E2,1.5834235E3,5.122969E2,5.7048486E2,1.5345262E3,4.165021E4,5.7010444E3,6.7535117E3,1.2295883E4,1.3071934E3,2.2990574E3,4.163434E3,7.6822676E3,2.368317E2,6.3990674E2,9.308091E2,1.6622214E3,6.90395E2,2.3197624E2,5.461386E1,5.2893787E2,5.577627E2,1.8364072E3,1.4235248E2,4.039475E2,2.658833E2,7.900557E1,1.0351301E3,1.439586E3,1.1075574E4,3.249601E3,4.3528364E3,5.737202E3,5.484546E3,1.9994785E3,8.29568E3,6.6425938E3,5.40896E2,1.5183882E3,1.1290613E3,5.8290674E2,5.9623857E3,7.5222314E2,2.668334E3,5.1394707E3,0E0,0E0,0E0,0E0,0E0,0E0,0E0,0E0,0E0,0E0,0E0,0E0,0E0,0E0,0E0,0E0,0E0,0E0,0E0,0E0,0E0,0E0,0E0,0E0,0E0,0E0,0E0,0E0,0E0,0E0,0E0,0E0,0E0,0E0,0E0,0E0,0E0,0E0,0E0,0E0,0E0,0E0,0E0,0E0,0E0,0E0,0E0,0E0,0E0,0E0,0E0,0E0,0E0,0E0,0E0,0E0,0E0,0E0,0E0,0E0,0E0,0E0,0E0,0E0],"parents":[2147483647,0,0,1,1,2,2,3,3,4,4,5,5,6,6,7,7,8,8,9,9,10,10,11,11,12,12,13,13,14,14,15,15,16,16,17,17,18,18,19,19,20,20,21,21,22,22,23,23,24,24,25,25,26,26,27,27,28,28,29,29,30,30,31,31,32,32,33,33,34,34,35,35,36,36,37,37,38,38,39,39,40,40,41,41,42,42,43,43,44,44,45,45,46,46,47,47,48,48,49,49,50,50,51,51,52,52,53,53,54,54,55,55,56,56,57,57,58,58,59,59,60,60,61,61,62,62],"right_children":[2,4,6,8,10,12,14,16,18,20,22,24,26,28,30,32,34,36,38,40,42,44,46,48,50,52,54,56,58,60,62,64,66,68,70,72,74,76,78,80,82,84,86,88,90,92,94,96,98,100,102,104,106,108,110,112,114,116,118,120,122,124,126,-1,-1,-1,-1,-1,-1,-1,-1,-1,-1,-1,-1,-1,-1,-1,-1,-1,-1,-1,-1,-1,-1,-1,-1,-1,-1,-1,-1,-1,-1,-1,-1,-1,-1,-1,-1,-1,-1,-1,-1,-1,-1,-1,-1,-1,-1,-1,-1,-1,-1,-1,-1,-1,-1,-1,-1,-1,-1,-1,-1,-1,-1,-1,-1],"split_conditions":[3.6385002E1,2.8275002E1,3.5E0,2.5E0,4.9001465E1,5.4687294E1,3.7302734E1,9.95E0,3.817035E1,4.2145E3,4.9256012E1,4.4612785E1,2.0195E3,2.4945E3,5.551918E1,5.4449997E0,1.9175E1,1.59E1,7.315E0,5E-1,5.496014E1,1.85E1,5.937E3,4.0528362E1,2.8285E3,1.13994995E2,9.5E0,3.662806E1,1.1705E1,5.5116013E1,9.5E0,3.6950002E0,1.975E1,3.7341625E1,3.748831E1,7.165E0,1.905E0,5.5E0,4.695E0,4.4598694E1,9.5E0,4.5036095E1,3.4283726E1,5.5E0,5E-1,5.23E3,6.0290977E1,4.3612366E1,4.310985E1,3.5964622E1,3.8986694E1,5.5828995E1,6.5E0,2.0205E3,3.7769356E1,5.415E1,5.5695168E1,7.029E3,3.0316002E1,5.5030407E1,2.8655E3,4.2E1,5E-1,-6.416814E-2,1.2572359E-1,4.8372284E-1,1.9766608E0,-3.399106E-1,-1.2893574E-1,-1.1633566E-1,-3.4424774E-2,5.6377536E-1,1.5195274E0,2.4640303E0,-2.3997624E-1,6.0206305E-2,2.3654921E-1,6.818202E-1,3.7290428E-2,1.05315745E-1,-5.706201E-2,-2.0319743E-2,3.8321275E-2,-8.322728E-2,-1.7562103E-2,-2.808539E-1,-1.2613569E-1,1.3724752E-1,2.1937151E-1,3.8942814E-2,1.3782512E-1,-1.3842158E-2,-7.8671105E-2,-1.5733556E-1,1.7824005E-2,5.127301E-1,1.9314912E-1,5.1796567E-2,-1.3146298E-1,-6.0848016E-1,-8.382568E-2,5.3353306E-2,-1.6961474E-2,6.1881743E-2,5.334049E-3,7.947177E-2,2.8913987E-1,5.7944894E-2,1.428037E-1,2.8584072E-1,1.3436374E-1,-2.7743927E-1,-5.262206E-1,-4.373468E-2,-2.4170157E-1,2.6613125E-3,-1.1698707E-1,-2.1446213E-1,-9.252403E-2,-9.906591E-3,1.0486631E-1,-3.2006674E-2,-1.0028664E-1,-1.23422764E-1,2.5696147E-3,-3.951175E-3,1.1429243E-1],"split_indices":[7,7,3,6,1,0,1,7,1,2,1,0,10,2,0,7,7,7,7,9,0,5,2,1,2,7,11,1,8,0,5,7,8,1,1,7,8,5,8,0,5,1,1,5,9,2,1,0,1,1,1,0,5,10,1,7,0,2,1,0,2,2,9,0,0,0,0,0,0,0,0,0,0,0,0,0,0,0,0,0,0,0,0,0,0,0,0,0,0,0,0,0,0,0,0,0,0,0,0,0,0,0,0,0,0,0,0,0,0,0,0,0,0,0,0,0,0,0,0,0,0,0,0,0,0,0,0],"split_type":[0,0,0,0,0,0,0,0,0,0,0,0,0,0,0,0,0,0,0,0,0,0,0,0,0,0,0,0,0,0,0,0,0,0,0,0,0,0,0,0,0,0,0,0,0,0,0,0,0,0,0,0,0,0,0,0,0,0,0,0,0,0,0,0,0,0,0,0,0,0,0,0,0,0,0,0,0,0,0,0,0,0,0,0,0,0,0,0,0,0,0,0,0,0,0,0,0,0,0,0,0,0,0,0,0,0,0,0,0,0,0,0,0,0,0,0,0,0,0,0,0,0,0,0,0,0,0],"sum_hessian":[3.759458E6,7.94539E5,2.964919E6,1.70678E5,6.23861E5,1.880922E6,1.083997E6,1.68994E5,1.684E3,3.31497E5,2.92364E5,6.41962E5,1.23896E6,9.3641E4,9.90356E5,3.367E3,1.65627E5,3.48E2,1.336E3,3.02405E5,2.9092E4,1.8884E4,2.7348E5,8.6268E4,5.55694E5,6.3698E5,6.0198E5,1.8387E4,7.5254E4,6.52579E5,3.37777E5,2.661E3,7.06E2,2.9686E4,1.35941E5,2.87E2,6.1E1,6.9E2,6.46E2,7.4915E4,2.2749E5,1.8014E4,1.1078E4,1.4613E4,4.271E3,1.07217E5,1.66263E5,3.9699E4,4.6569E4,5.5146E4,5.00548E5,6.18763E5,1.8217E4,4.93407E5,1.08573E5,3.255E3,1.5132E4,6.0984E4,1.427E4,5.84109E5,6.847E4,1.74234E5,1.63543E5,8.85E2,1.776E3,6.8E2,2.6E1,2.019E3,2.7667E4,2.8109E4,1.07832E5,1.15E2,1.72E2,2E0,5.9E1,4.45E2,2.45E2,4.97E2,1.49E2,1.954E3,7.2961E4,1.58514E5,6.8976E4,1.426E4,3.754E3,1.817E3,9.261E3,6.094E3,8.519E3,3.342E3,9.29E2,7.5908E4,3.1309E4,4.335E3,1.61928E5,1.7296E4,2.2403E4,1.1595E4,3.4974E4,1.461E3,5.3685E4,1.48479E5,3.52069E5,2.95216E5,3.23547E5,6.213E3,1.2004E4,3.45219E5,1.48188E5,4.3421E4,6.5152E4,1.915E3,1.34E3,5.45E3,9.682E3,5.2784E4,8.2E3,6.396E3,7.874E3,5.4005E5,4.4059E4,2.0904E4,4.7566E4,1.6735E4,1.57499E5,4.6049E4,1.17494E5],"tree_param":{"num_deleted":"0","num_feature":"13","num_nodes":"127","size_leaf_vector":"0"}},{"base_weights":[4.654048E-2,-1.00003354E-1,7.446404E-2,-2.0151246E-1,-4.0093865E-2,4.975171E-2,2.6212665E-1,-2.0994914E-1,4.8974347E-1,3.1101173E-1,-6.6361174E-2,2.1588756E-2,1.7190959E-1,7.8309333E-1,2.2634293E-1,-3.2352573E-1,-1.67067E-1,7.222895E-1,-1.1217362E0,1.9511808E0,2.878232E-1,-9.8431416E-2,3.93269E-2,1.7728426E-3,1.35204E-1,8.521663E-2,2.6215956E-1,-6.9058037E-1,8.4835255E-1,1.9115528E-1,6.502753E-1,-2.8947031E-1,-8.479119E-1,-1.350717E-1,-2.889054E-1,2.3113964E-1,1.3905535E0,-1.9083093E0,1.5570591E-2,2.6915164E0,1.2241653E0,3.1698442E-1,-3.6134315E-1,-8.414783E-2,-4.738637E-1,3.6542282E-1,-4.7565434E-2,-7.57303E-2,3.3733927E-2,3.0073452E-1,4.8656076E-2,9.993457E-3,1.4810868E-1,4.2647454E-1,1.640877E-1,-8.615848E-1,1.4043099E0,6.380249E-1,1.4188362E0,4.6300834E-1,1.4497973E-1,-1.2881498E0,7.938885E-1,-3.1396952E-1,4.0623152E-1,-5.7714427E-1,-1.1650896E0,-1.8132848E-1,-4.3833894E-3,-2.1720894E-1,-7.1356994E-1,-1.0030372E0,4.3030912E-1,7.7246404E-1,2.0875554E0,-1.444395E0,-3.7983027E0,5.88489E0,-4.3258792E-1,3.0643525E0,5.447919E-1,1.5006738E0,-9.178612E-1,2.9530174E-1,1.1960527E0,-2.4948896E-1,-9.3086404E-1,-9.72395E-2,1.8660934E-1,-3.9511502E-1,-8.9106536E-1,2.9903743E-1,1.8819567E0,-2.3263152E-1,1.7173003E-1,-7.915659E-2,1.3226169E0,1.7927542E-2,3.458584E-1,1.316491E-1,4.6443528E-1,-2.5153583E-1,7.708568E-2,-3.8087044E-2,9.1612905E-2,1.2607482E-1,3.5537967E-1,4.1004363E-1,7.1304307E0,9.439128E-2,3.2502216E-1,9.0734166E-1,-9.741975E-1,5.967942E-1,2.3332057E0,7.0954394E-1,-1.2386628E0,1.51515E0,-2.7468941E0,3.591583E-1,1.145524E0,-2.6766377E-2,2.2967507E-1,2.7181906E-1,-2.3814037E0,5.196617E-1,1.2675618E0],"categories":[],"categories_nodes":[],"categories_segments":[],"categories_sizes":[],"default_left":[1,1,1,1,1,1,1,1,1,1,1,1,1,1,1,1,1,1,1,1,1,1,1,1,1,1,1,1,1,1,1,1,1,1,1,1,1,1,1,1,1,1,1,1,1,1,1,1,1,1,1,1,1,1,1,1,1,1,1,1,1,1,1,0,0,0,0,0,0,0,0,0,0,0,0,0,0,0,0,0,0,0,0,0,0,0,0,0,0,0,0,0,0,0,0,0,0,0,0,0,0,0,0,0,0,0,0,0,0,0,0,0,0,0,0,0,0,0,0,0,0,0,0,0,0,0,0],"id":12,"left_children":[1,3,5,7,9,11,13,15,17,19,21,23,25,27,29,31,33,35,37,39,41,43,45,47,49,51,53,55,57,59,61,63,65,67,69,71,73,75,77,79,81,83,85,87,89,91,93,95,97,99,101,103,105,107,109,111,113,115,117,119,121,123,125,-1,-1,-1,-1,-1,-1,-1,-1,-1,-1,-1,-1,-1,-1,-1,-1,-1,-1,-1,-1,-1,-1,-1,-1,-1,-1,-1,-1,-1,-1,-1,-1,-1,-1,-1,-1,-1,-1,-1,-1,-1,-1,-1,-1,-1,-1,-1,-1,-1,-1,-1,-1,-1,-1,-1,-1,-1,-1,-1,-1,-1,-1,-1,-1],"loss_changes":[1.5383809E4,3.659164E3,1.4644338E4,1.3024717E3,3.4897231E3,9.599596E3,6.8497246E3,1.0744844E3,1.00999365E3,1.0011555E3,1.1932537E3,5.1051274E3,4.090165E3,2.2717568E3,5.1288066E3,1.0796035E3,6.2430225E2,7.723031E2,3.0418515E2,1.9423755E2,4.9177686E2,1.4483333E3,2.322317E3,4.7827373E3,4.824431E3,1.2614658E3,4.1273984E3,3.6016183E2,2.7126338E3,3.98521E3,7.336704E3,9.679287E2,3.1597266E2,7.668352E2,1.0140332E3,3.3424207E2,4.2790466E2,1.7074963E2,3.707997E2,1.4319873E2,1.12135376E2,4.7341553E2,7.092435E1,9.22318E2,3.2487036E2,1.7354888E3,2.6264436E3,2.7011028E3,6.7443916E3,3.2002324E3,1.8872603E3,4.764885E2,6.6318994E2,1.054227E4,1.7990942E3,1.8554572E2,5.5615005E1,2.2188462E3,2.4479756E3,3.2667676E3,3.9475684E3,3.101141E3,3.1861592E3,0E0,0E0,0E0,0E0,0E0,0E0,0E0,0E0,0E0,0E0,0E0,0E0,0E0,0E0,0E0,0E0,0E0,0E0,0E0,0E0,0E0,0E0,0E0,0E0,0E0,0E0,0E0,0E0,0E0,0E0,0E0,0E0,0E0,0E0,0E0,0E0,0E0,0E0,0E0,0E0,0E0,0E0,0E0,0E0,0E0,0E0,0E0,0E0,0E0,0E0,0E0,0E0,0E0,0E0,0E0,0E0,0E0,0E0,0E0,0E0,0E0,0E0,0E0,0E0],"parents":[2147483647,0,0,1,1,2,2,3,3,4,4,5,5,6,6,7,7,8,8,9,9,10,10,11,11,12,12,13,13,14,14,15,15,16,16,17,17,18,18,19,19,20,20,21,21,22,22,23,23,24,24,25,25,26,26,27,27,28,28,29,29,30,30,31,31,32,32,33,33,34,34,35,35,36,36,37,37,38,38,39,39,40,40,41,41,42,42,43,43,44,44,45,45,46,46,47,47,48,48,49,49,50,50,51,51,52,52,53,53,54,54,55,55,56,56,57,57,58,58,59,59,60,60,61,61,62,62],"right_children":[2,4,6,8,10,12,14,16,18,20,22,24,26,28,30,32,34,36,38,40,42,44,46,48,50,52,54,56,58,60,62,64,66,68,70,72,74,76,78,80,82,84,86,88,90,92,94,96,98,100,102,104,106,108,110,112,114,116,118,120,122,124,126,-1,-1,-1,-1,-1,-1,-1,-1,-1,-1,-1,-1,-1,-1,-1,-1,-1,-1,-1,-1,-1,-1,-1,-1,-1,-1,-1,-1,-1,-1,-1,-1,-1,-1,-1,-1,-1,-1,-1,-1,-1,-1,-1,-1,-1,-1,-1,-1,-1,-1,-1,-1,-1,-1,-1,-1,-1,-1,-1,-1,-1,-1,-1,-1],"split_conditions":[2.0185E3,3.9592243E1,7.6104996E1,1.15149994E2,3.9739086E1,9.5E0,3.6E1,5E-1,3.900175E1,4.35851E1,5.6211143E1,2.0205E3,2.0195E3,3.7302853E1,1.2719E2,6.001661E1,3.8989037E1,6.5E0,3.904729E1,3.9729534E1,4.7302788E1,5.5879097E1,5.635371E1,5E-1,3.8637947E1,4.3269997E1,3.8241596E1,1.037E2,8.945E1,2.5E0,2.5E0,9.2045E1,1.185E1,3.8065315E1,6.7149994E1,3.5E0,1.298E2,4.506833E1,3.9048546E1,1.55E1,1.95E1,2.2349998E1,7.09E1,5.576665E1,6.73E1,1.003E2,6.0289177E1,3.35E1,2.05E1,4.3985E1,2.663E3,4.9006905E1,5.983306E1,3.8240547E1,6.5487045E1,5.5508533E1,5.5E0,3.7860386E1,1.525E2,5.985122E1,5E-1,1.98475E2,5.5768963E1,-9.419086E-2,1.2186946E-1,-1.7314328E-1,-3.4952688E-1,-5.4398544E-2,-1.3150169E-3,-6.516268E-2,-2.1407099E-1,-3.009112E-1,1.2909274E-1,2.3173922E-1,6.2626666E-1,-4.333185E-1,-1.1394908E0,1.765467E0,-1.2977639E-1,9.193058E-1,1.6343758E-1,4.5020214E-1,-2.7535838E-1,8.8590525E-2,3.5881582E-1,-7.484669E-2,-2.7925923E-1,-2.9171852E-2,5.5982806E-2,-1.1853451E-1,-2.6731962E-1,8.9711234E-2,5.6458706E-1,-6.978946E-2,5.151901E-2,-2.3746978E-2,3.967851E-1,5.378263E-3,1.0375752E-1,3.9494734E-2,1.393306E-1,-7.5460754E-2,2.3125704E-2,-1.1426114E-2,2.7483873E-2,3.7822448E-2,1.06613904E-1,1.23013094E-1,2.1391294E0,2.8317384E-2,9.750665E-2,2.7220252E-1,-2.9225928E-1,1.7903826E-1,6.999617E-1,2.1286319E-1,-3.7159887E-1,4.54545E-1,-8.2406825E-1,1.07747495E-1,3.4365723E-1,-8.0299135E-3,6.890252E-2,8.154572E-2,-7.1442115E-1,1.5589853E-1,3.8026854E-1],"split_indices":[10,1,7,7,1,11,2,9,1,0,0,10,10,1,7,0,1,4,1,1,0,0,0,9,1,7,1,7,7,6,6,7,8,1,7,5,7,0,1,4,5,8,7,0,7,7,1,5,5,7,2,1,0,1,1,0,5,1,7,0,9,7,0,0,0,0,0,0,0,0,0,0,0,0,0,0,0,0,0,0,0,0,0,0,0,0,0,0,0,0,0,0,0,0,0,0,0,0,0,0,0,0,0,0,0,0,0,0,0,0,0,0,0,0,0,0,0,0,0,0,0,0,0,0,0,0,0],"split_type":[0,0,0,0,0,0,0,0,0,0,0,0,0,0,0,0,0,0,0,0,0,0,0,0,0,0,0,0,0,0,0,0,0,0,0,0,0,0,0,0,0,0,0,0,0,0,0,0,0,0,0,0,0,0,0,0,0,0,0,0,0,0,0,0,0,0,0,0,0,0,0,0,0,0,0,0,0,0,0,0,0,0,0,0,0,0,0,0,0,0,0,0,0,0,0,0,0,0,0,0,0,0,0,0,0,0,0,0,0,0,0,0,0,0,0,0,0,0,0,0,0,0,0,0,0,0,0],"sum_hessian":[3.759458E6,6.01702E5,3.157756E6,2.23317E5,3.78385E5,2.790315E6,3.67441E5,2.20625E5,2.692E3,2.6337E4,3.52048E5,2.267544E6,5.22771E5,2.3615E4,3.43826E5,6.0467E4,1.60158E5,2.353E3,3.39E2,3.66E2,2.5971E4,2.70091E5,8.1957E4,1.930791E6,3.36753E5,2.66641E5,2.5613E5,1.001E3,2.2614E4,3.17476E5,2.635E4,5.6781E4,3.686E3,1.26849E5,3.3309E4,1.357E3,9.96E2,2E2,1.39E2,1.8E2,1.86E2,2.4855E4,1.116E3,2.60193E5,9.898E3,1.7243E4,6.4714E4,5.63747E5,1.367044E6,1.15619E5,2.21134E5,1.21418E5,1.45223E5,9.5732E4,1.60398E5,9.26E2,7.5E1,1.6524E4,6.09E3,4.6094E4,2.71382E5,1.817E3,2.4533E4,5.485E4,1.931E3,1.99E3,1.696E3,9.3688E4,3.3161E4,2.8499E4,4.81E3,1.88E2,1.169E3,5.29E2,4.67E2,1.62E2,3.8E1,9E0,1.3E2,1.53E2,2.7E1,1.65E2,2.1E1,2.4258E4,5.97E2,9.34E2,1.82E2,2.48193E5,1.2E4,8.328E3,1.57E3,1.6521E4,7.22E2,3.5096E4,2.9618E4,5.6237E5,1.377E3,1.301153E6,6.5891E4,5.6875E4,5.8744E4,1.913E4,2.02004E5,7.6408E4,4.501E4,1.3127E5,1.3953E4,9.5499E4,2.33E2,1.11927E5,4.8471E4,5.5E1,8.71E2,4.1E1,3.4E1,1.5918E4,6.06E2,5.953E3,1.37E2,4.0008E4,6.086E3,8.963E4,1.81752E5,7.49E2,1.068E3,1.5539E4,8.994E3],"tree_param":{"num_deleted":"0","num_feature":"13","num_nodes":"127","size_leaf_vector":"0"}},{"base_weights":[3.257979E-2,-1.8410261E-1,4.5291506E-2,-5.0139004E-1,-1.3424334E-1,-1.5996693E-2,9.03213E-2,-1.9189456E-1,-6.729795E-1,-5.8797713E-2,-2.5183707E-1,-1.3576195E-1,8.4571424E-4,1.4859311E-1,-2.729525E-3,-3.857051E-2,-1.0840487E0,-5.149753E-1,-9.9424857E-1,-3.413175E-2,-4.4764525E-1,-2.0110443E-1,-5.0147057E-1,-1.4571135E-1,1.1111706E0,-5.695993E-2,2.6369203E-2,1.1525592E-1,4.160243E-1,-1.9622418E-1,1.6510759E-2,1.1408378E0,-9.1349535E-2,-1.8284217E0,-8.0760723E-1,-9.12858E-1,-4.3174464E-1,-7.1413785E-1,-1.3439354E0,-1.2025654E-1,2.8551733E-2,-3.6897905E-2,-5.5018777E-1,-1.0193285E-1,-2.6062465E-1,-3.1418115E-1,-6.6147095E-1,-3.2346278E-1,-1.12698436E-1,1.6949338E0,1.19412445E-1,-4.4481896E-2,-2.7203736E-1,2.121839E-1,1.379282E-2,1.4072312E-1,-2.3145975E-1,6.326204E-1,-1.5287073E-1,1.8522742E-1,-2.7211222E-1,1.8802607E-2,-1.5597651E0,2.9351175E-1,1.7952895E0,3.880393E-2,-4.3415955E-1,-2.9321289E-2,-1.9637591E0,-1.0998516E0,-1.6470122E-1,-1.039859E0,-5.134168E-1,-8.9759046E-1,-3.722688E-1,-8.598133E-1,-1.6839273E-2,-1.387995E0,1.0384345E0,-9.789513E-2,-7.8632283E-1,5.0770476E-2,-2.1539643E-1,5.7589704E-1,-2.3431678E-1,-5.0976294E-1,-1.544635E0,-1.8803945E-1,-5.9517045E-2,-3.2302162E-1,-1.13534845E-1,-4.9608687E-1,2.4976227E-2,-9.638207E-1,-5.123952E-1,-5.918253E-1,-2.2384576E-1,-2.383605E-1,-6.986677E-2,1.051961E0,2.676769E0,5.6172365E-1,-8.595783E-1,-6.2209997E-2,2.5655058E-1,-1.0390237E-1,-5.903272E-1,-1.6828747E-1,3.1846777E-1,-2.7786386E-1,2.8909467E-2,4.1664645E-1,1.1320689E-1,-1.6619197E-1,-1.1114573E0,8.965659E-1,2.9015785E-1,-4.759753E-1,2.7524054E-3,-1.17701486E-1,3.2374075E-1,2.3973797E-1,-3.316409E-1,1.6391682E-2,1.1717628E0,-2.0176094E0,-1.1895238E0],"categories":[],"categories_nodes":[],"categories_segments":[],"categories_sizes":[],"default_left":[1,1,1,1,1,1,1,1,1,1,1,1,1,1,1,1,1,1,1,1,1,1,1,1,1,1,1,1,1,1,1,1,1,1,1,1,1,1,1,1,1,1,1,1,1,1,1,1,1,1,1,1,1,1,1,1,1,1,1,1,1,1,1,0,0,0,0,0,0,0,0,0,0,0,0,0,0,0,0,0,0,0,0,0,0,0,0,0,0,0,0,0,0,0,0,0,0,0,0,0,0,0,0,0,0,0,0,0,0,0,0,0,0,0,0,0,0,0,0,0,0,0,0,0,0,0,0],"id":13,"left_children":[1,3,5,7,9,11,13,15,17,19,21,23,25,27,29,31,33,35,37,39,41,43,45,47,49,51,53,55,57,59,61,63,65,67,69,71,73,75,77,79,81,83,85,87,89,91,93,95,97,99,101,103,105,107,109,111,113,115,117,119,121,123,125,-1,-1,-1,-1,-1,-1,-1,-1,-1,-1,-1,-1,-1,-1,-1,-1,-1,-1,-1,-1,-1,-1,-1,-1,-1,-1,-1,-1,-1,-1,-1,-1,-1,-1,-1,-1,-1,-1,-1,-1,-1,-1,-1,-1,-1,-1,-1,-1,-1,-1,-1,-1,-1,-1,-1,-1,-1,-1,-1,-1,-1,-1,-1,-1],"loss_changes":[1.035508E4,3.295624E3,9.800398E3,1.5022969E3,1.5972698E3,3.0338584E3,1.10998125E4,1.3804297E3,9.233535E2,1.0519105E3,8.910288E2,2.300699E3,1.945481E3,1.1222574E4,2.9347627E3,5.362464E2,3.030713E2,4.03688E2,5.8664844E2,5.567829E2,2.7552246E2,3.4517017E2,3.559126E2,1.079499E3,8.496987E2,1.0839172E3,2.137594E3,